svm_type c_svc
kernel_type rbf
gamma 0.3333333333333333
nr_class 3
total_sv 80
rho -0.19601771534185883 -0.542555534757207 -0.3832634234597753
label 1 2 3
nr_sv 50 21 9
SV
0.34825123750471554 0.19950196160855554 1:14.0 2:0.8 3:0.0 
0.03492625035122671 0.0018054416695692788 1:10.0 2:0.0 3:0.0 
0.46907902730941614 0.3028210707765852 1:1.0 2:0.0 3:0.7 
0.18812714938386324 0.1061553529225117 1:20.0 2:0.0 3:0.0 
0.01978314308860094 0.0 1:8.4 2:0.0 3:0.0 
0.10641668940824241 0.0 1:7.8 2:0.0 3:0.0 
0.16655015937792947 0.146203613375983 1:5.0 2:1.0 3:0.0 
0.33315093364112264 0.05187568978466466 1:4.0 2:1.0 3:0.0 
0.2326519182821622 0.12812645536043457 1:10.2 2:1.0 3:0.0 
0.6167922107613357 0.35062644628373535 1:20.6 2:2.0 3:0.0 
0.38890873478312754 0.2313925774356117 1:9.0 2:2.4 3:0.0 
0.7145032687105295 0.4089088059858159 1:10.0 2:4.8 3:0.0 
0.02758937574503432 0.009920500453323707 1:3.0 2:0.0 3:1.0 
0.7600031324878146 0.4320356450883657 1:20.0 2:0.8 3:3.0 
0.0 0.0031905638784106086 1:6.4 2:0.0 3:0.0 
0.957769188555452 0.43829859256988873 1:8.0 2:7.0 3:0.7 
0.4936084401000641 0.2803767867309357 1:7.0 2:0.0 3:1.4 
0.1598353923682272 0.06042533593814784 1:14.7 2:0.0 3:0.0 
0.581448571099183 0.3312684647799299 1:18.0 2:0.0 3:0.0 
0.7152272472586904 0.42469667752269197 1:4.0 2:0.0 3:2.7 
0.38481297893264743 0.21977145126675457 1:21.0 2:0.0 3:0.0 
0.33687268030463197 0.1907510440284543 1:13.0 2:0.0 3:1.0 
0.005976404718549297 0.03294503479733378 1:15.0 2:0.0 3:0.0 
0.005428906847694585 0.09161343376487527 1:11.6 2:0.0 3:0.0 
0.21263233336693377 0.1042350443000332 1:1.0 2:0.0 3:0.0 
0.01685243660629093 0.0 1:8.8 2:0.0 3:0.0 
0.7525367468766282 0.4280168501908665 1:23.6 2:0.0 3:0.0 
0.10034079115964573 0.005993408683017563 1:12.0 2:0.0 3:0.0 
0.054126174640183114 0.0 1:8.2 2:0.0 3:0.0 
0.01191442603971911 0.05227070556190838 1:10.8 2:0.0 3:0.0 
0.26785337896178407 0.14421294348238747 1:9.0 2:0.0 3:0.0 
0.21266211920765657 0.20337775369349695 1:3.4 2:0.0 3:0.0 
0.6246230989126564 0.3553742033535662 1:16.0 2:0.0 3:2.0 
0.016959700977184633 0.005382789477999385 1:16.0 2:0.0 3:0.0 
0.0 0.0055316793268660415 1:6.0 2:0.0 3:0.0 
0.6675897021047478 0.3800573694420299 1:10.7 2:0.0 3:2.4 
0.0 0.028971162426163013 1:9.8 2:0.0 3:0.0 
0.6606893777474655 0.3332645433246266 1:7.0 2:2.6 3:0.0 
0.3525347894606573 0.19977730848202144 1:16.0 2:0.8 3:0.0 
0.06231319057413118 0.029897179882608187 1:11.8 2:0.0 3:0.0 
0.007838470046100804 0.0 1:8.0 2:0.0 3:0.0 
0.12703864912452772 0.06286832512443902 1:12.0 2:0.0 3:0.0 
0.2899625240817194 0.1405791926109713 1:5.8 2:0.0 3:0.0 
0.7963482730079553 0.4529056383282612 1:9.1 2:3.2 3:4.0 
0.004313972684827135 0.0024160353354120935 1:9.0 2:0.0 3:0.7 
0.03386717413631463 0.03080116594868708 1:5.0 2:0.0 3:0.0 
1.0 0.34187413523766375 1:2.0 2:2.0 3:0.0 
0.008309903749945119 0.12165824733692494 1:8.0 2:0.0 3:0.0 
0.13810272304832902 0.0 1:11.0 2:0.0 3:0.0 
0.0 0.01670894479795727 1:13.0 2:0.0 3:0.0 
-1.0 0.4435732083642874 1:0.0 2:2.8 3:1.0 
-1.0 0.3990256503757414 1:3.0 2:3.2 3:0.0 
-0.45482001761080293 0.2563295229875064 1:4.0 2:4.2 3:0.0 
-0.12346454028671722 0.0 1:2.0 2:4.0 3:0.0 
-1.0 0.6168388335491986 1:9.0 2:19.6 3:0.0 
-0.8449404131590036 0.4554499355473496 1:5.0 2:10.0 3:0.0 
-0.4292304470181582 0.23894004463368826 1:0.0 2:4.8 3:1.4 
-1.0 0.616103885353015 1:8.0 2:13.4 3:0.0 
-0.6718697881923821 0.38125956606650796 1:2.0 2:5.4 3:0.0 
-0.6261462721474544 0.32251954545059186 1:0.0 2:11.0 3:0.0 
-0.21610059079593408 0.11281083670095869 1:0.0 2:5.0 3:0.0 
-0.8482669770273801 0.43757883816538456 1:0.0 2:14.0 3:0.7 
-0.5251033903233636 0.2675380405239919 1:0.0 2:7.0 3:0.0 
-0.2966125593738777 0.15267979365306508 1:0.0 2:3.8 3:0.0 
-0.5644456838477319 0.2913293482761885 1:1.0 2:12.0 3:0.0 
-1.0 0.5543317286857858 1:6.0 2:5.4 3:0.0 
-0.5360825783870893 0.27167168425931015 1:0.0 2:6.8 3:1.4 
-0.9105948591799249 0.4693458269733175 1:0.0 2:9.2 3:2.1 
-0.6058304643983146 0.31402349240503163 1:0.0 2:9.0 3:0.0 
-0.8745456174974708 0.45083959171105653 1:2.0 2:14.0 3:0.7 
-0.9390687982900591 0.428322490605695 1:6.0 2:8.6 3:0.0 
-0.2832905972790013 -0.16252310434297873 1:0.0 2:0.0 3:4.0 
-0.9601078389776987 -0.9435615706426815 1:0.0 2:0.0 3:4.0 
-0.7625686328067872 -0.6798026441454833 1:0.0 2:0.0 3:6.0 
-1.0 -1.0 1:2.0 2:0.0 3:8.7 
-1.0 -0.9472091969033056 1:2.0 2:0.0 3:5.7 
-1.0 -1.0 1:10.0 2:0.0 3:10.7 
-1.0 -1.0 1:0.6 2:0.6 3:18.0 
-1.0 -1.0 1:1.0 2:0.0 3:12.5 
-0.8829185033069993 -0.7474153482532225 1:1.0 2:1.0 3:7.7 
