svm_type c_svc
kernel_type rbf
gamma 0.2
nr_class 5
total_sv 90
rho -0.5372792920436473 -0.08699268107759539 -0.91579140395284 -0.9192901660062143 0.3675060334979733 -0.8389796653744134 -0.8668661191563155 -0.8637053222922176 -0.9090505702061499 -0.3333340656160264
label 3 5 1 4 2
nr_sv 35 18 32 3 2
SV
0.4617810319200921 0.9113126164587967 0.08445503597487863 0.08076605915841055 1:0.4 2:0.7 3:49.3 4:5.2 5:0.0 
1.0 0.643781468353093 0.0 0.0 1:1.6 2:0.0 3:5.6 4:0.0 5:0.0 
0.46185708144020565 0.9112182939794247 0.08413411175006014 0.08054161936373123 1:0.4 2:0.0 3:38.4 4:1.8 5:0.0 
1.0 0.2935902930355834 0.0 0.03902947918593147 1:0.6 2:0.9 3:5.5 4:0.0 5:0.0 
0.17874617645559768 0.35286643504880266 0.03130101219121394 0.03194106301409845 1:0.9 2:0.0 3:29.5 4:0.9 5:0.0 
0.438399534744748 0.8644912872238534 0.07976036821638349 0.0763757278806326 1:0.0 2:0.0 3:9.7 4:0.0 5:12.6 
0.4002979250293065 0.7901841102347057 0.07276535454083902 0.06971250167955623 1:0.4 2:0.9 3:26.4 4:0.0 5:0.0 
0.43852547113884305 0.8646716574429381 0.08012337815203299 0.07660982150468525 1:0.4 2:0.0 3:10.4 4:0.9 5:9.0 
0.46260702852694374 0.9134003000809461 0.08424881090769037 0.081069162730593 1:4.4 2:1.8 3:56.9 4:15.0 5:1.8 
0.6654661771228856 1.0 0.05282993764929696 0.05129821893922219 1:0.0 2:0.0 3:0.0 4:0.0 5:0.0 
0.37876985447671924 0.7463465949072998 0.06888872056646461 0.06588585931389573 1:1.1 2:0.0 3:33.1 4:0.9 5:0.9 
0.5084772539714106 0.34225199600386047 0.5974134809918819 0.03749914633633737 1:0.0 2:0.0 3:7.7 4:0.0 5:0.0 
0.48358277833754926 1.0 0.0822524734637388 0.0786001256408587 1:0.6 2:0.0 3:17.2 4:1.0 5:0.0 
0.46267743714145065 0.9130696736739641 0.08430408053807936 0.0806996647687434 1:11.2 2:1.8 3:41.6 4:3.3 5:0.0 
0.3259684651646398 0.6910225020449071 0.06307241063521377 0.05965164167965219 1:5.2 2:0.0 3:20.6 4:0.6 5:0.0 
0.46171628067171616 0.9113428292516648 0.0839688104559358 0.08054312428109613 1:5.1 2:0.0 3:46.9 4:3.5 5:0.0 
0.7903665731922987 0.6523109353758139 0.3763863632729698 0.0577142632520567 1:0.0 2:0.0 3:8.9 4:3.1 5:0.0 
0.256169043105151 0.5054628086539223 0.04771638197320159 0.044134986161305054 1:0.0 2:0.0 3:29.9 4:1.0 5:0.0 
0.3242136778346605 0.6423040745881011 0.0647328935823483 0.06123344461837028 1:1.9 2:0.0 3:21.9 4:0.5 5:0.0 
0.40823045527165747 0.8055439937307137 0.07430613579566178 0.0711011794827469 1:4.1 2:0.9 3:32.3 4:0.6 5:0.9 
0.42391501027971046 0.8395935249155436 0.07698007079011264 0.0737753909200412 1:0.5 2:0.0 3:24.6 4:3.0 5:0.9 
0.3264199451376485 0.8011595691758846 0.24967172506894114 0.0487703298879825 1:1.6 2:0.0 3:11.3 4:0.9 5:0.0 
0.7473369982211195 0.9910854274650694 0.07951777268643882 0.07649203910746936 1:6.5 2:0.5 3:17.9 4:2.7 5:0.0 
0.4593988012854496 0.9064192206128143 0.08317986925955875 0.08013990111208681 1:5.0 2:0.0 3:33.8 4:5.1 5:0.0 
1.0 1.0 0.03653279040892076 0.033943795611994676 1:0.0 2:0.0 3:0.8 4:0.9 5:0.0 
0.023068781899540407 1.0 0.050299763259819844 0.051166077902409346 1:3.2 2:0.0 3:1.9 4:1.3 5:0.0 
0.21796364181306654 0.5372358975430177 0.02531460104112345 0.02524736769819453 1:3.2 2:0.0 3:20.3 4:0.9 5:0.0 
0.7441057049386466 0.7316213461004724 0.043106339655016965 0.045839171179094494 1:4.5 2:0.9 3:12.0 4:1.6 5:0.0 
1.0 1.0 0.06270021583357271 0.06061762888460216 1:2.4 2:0.0 3:4.8 4:0.8 5:1.8 
0.04043452357789515 0.30668624756055174 0.02166893034286347 0.0346581867881216 1:2.1 2:0.5 3:7.6 4:0.0 5:0.0 
0.18169653045743034 0.49373740815584016 0.0 0.04301261126643152 1:3.0 2:0.0 3:12.0 4:2.8 5:0.0 
0.3824148176957074 0.7049148606157297 0.05823854727917057 0.061120838533713605 1:4.5 2:0.0 3:9.7 4:0.0 5:0.0 
0.637182266759943 0.5254186389806313 0.0 0.04834348964637257 1:0.0 2:0.0 3:6.3 4:2.7 5:0.0 
0.42070452127493096 1.0 0.08001729116193927 0.07650816521593651 1:6.7 2:0.9 3:1.6 4:0.4 5:0.0 
1.0 1.0 0.020112322554630448 0.015957917253625678 1:2.9 2:0.0 3:2.0 4:0.6 5:0.0 
-1.0 1.0 0.14300093573319833 0.11819075618361075 1:0.0 2:0.0 3:0.9 4:0.0 5:9.1 
-1.0 1.0 0.114844406238191 0.0950181593657568 1:0.0 2:0.0 3:1.2 4:0.0 5:0.0 
-1.0 1.0 0.14854950594877725 0.12265195620646063 1:3.1 2:0.6 3:3.1 4:0.0 5:11.5 
-1.0 1.0 0.4543490795222917 0.13033797284235094 1:1.6 2:0.0 3:8.6 4:2.7 5:0.0 
-1.0 1.0 0.13235239652902325 0.10949951391011042 1:0.0 2:0.0 3:1.8 4:0.9 5:12.1 
-1.0 1.0 0.1604954818178996 0.13298465315797153 1:4.2 2:0.0 3:17.4 4:3.0 5:0.0 
-1.0 1.0 0.16089664596168723 0.13299700642210702 1:0.9 2:0.9 3:8.1 4:11.9 5:0.9 
-1.0 0.0 0.0 0.0 1:0.8 2:0.0 3:5.3 4:0.0 5:0.0 
-1.0 1.0 0.05570784039912519 0.05839154350710301 1:1.8 2:0.0 3:4.1 4:1.2 5:0.0 
-0.5124937888869643 0.0 0.0 0.0 1:0.6 2:0.0 3:3.7 4:0.0 5:0.0 
-1.0 0.9592601602766759 0.18526222585982788 0.1014705014416577 1:0.0 2:0.0 3:5.5 4:0.0 5:0.0 
-1.0 1.0 0.1606199747926738 0.13313641468659296 1:6.2 2:0.0 3:4.9 4:4.5 5:0.0 
-1.0 1.0 0.16108319722825054 0.3099461801543173 1:3.3 2:6.9 3:1.6 4:0.9 5:0.0 
-1.0 1.0 0.16089427355231184 0.13330625750062491 1:1.2 2:1.8 3:4.3 4:25.4 5:1.8 
-1.0 1.0 0.6147055521435102 0.13334308470622036 1:0.0 2:0.0 3:0.7 4:9.9 5:0.0 
-1.0 1.0 0.12599055445862556 0.10398245201373708 1:0.3 2:0.9 3:0.9 4:2.5 5:0.0 
-1.0 1.0 0.06033760812621095 0.05181772964168866 1:1.4 2:0.9 3:3.6 4:0.9 5:0.9 
-1.0 1.0 0.1609103216883956 0.13292581825968997 1:6.2 2:0.0 3:12.5 4:1.5 5:0.0 
-0.5091283119950005 -0.33424807522360683 0.07165802579891296 0.048916009489820875 1:10.8 2:0.0 3:0.6 4:0.0 5:0.0 
-0.8775496146345898 -0.514035528275461 0.012002637880487178 0.005905025609285924 1:3.7 2:0.0 3:4.5 4:0.0 5:0.0 
-0.5397455276896077 -0.31394857105579654 0.06690123082939611 0.045369006998998554 1:32.1 2:0.9 3:2.9 4:0.9 5:0.0 
-0.5578230878134183 -0.1293531355145865 0.05611607953020541 0.03825469743058393 1:4.3 2:0.0 3:0.0 4:0.0 5:0.0 
-0.8973011874405257 -0.5220858811731932 0.11270464708003408 0.07500589117755885 1:29.8 2:0.9 3:0.6 4:0.0 5:0.0 
-0.049431731524712016 -0.0 0.0 0.0 1:13.5 2:0.0 3:3.8 4:0.3 5:0.0 
-0.9994287093134374 -0.609570967350915 0.13150460405063483 0.08786573527832493 1:13.5 2:0.0 3:3.8 4:0.3 5:0.0 
-1.0 -0.6327429087566445 0.13662645435368476 0.09093305686419956 1:58.2 2:0.0 3:3.6 4:0.0 5:0.0 
-0.6847657863562205 -0.39856462313511076 0.08652802699671619 0.05703573949968701 1:32.1 2:0.0 3:3.6 4:0.0 5:0.0 
-0.87432380234881 -0.5087842528680813 0.10968569864301958 0.07324336039355824 1:23.0 2:0.0 3:3.7 4:0.7 5:0.0 
-0.7305163447161507 -0.358238064544136 0.07724665520910642 0.050908530805221605 1:10.1 2:0.0 3:0.6 4:0.9 5:0.0 
-1.0 -0.6325022275898914 0.1360903001729106 0.0914725146827281 1:19.1 2:0.0 3:9.0 4:0.9 5:0.0 
-1.0 -0.704826247821278 0.12131283460257912 0.08067723376795098 1:2.1 2:0.0 3:17.8 4:0.7 5:0.0 
-1.0 -0.4168760697658485 0.08180703717597235 0.05411961153128968 1:5.1 2:0.0 3:0.6 4:0.9 5:0.0 
-0.18594381907590496 -0.0 0.08393123623252575 0.056664599968802756 1:4.9 2:0.0 3:4.4 4:0.0 5:0.0 
-1.0 -0.9199787857353497 0.13406702147400695 0.08888655774965681 1:5.0 2:0.0 3:7.1 4:3.6 5:0.0 
-1.0 -0.6085926694889865 0.13109797040040186 0.08751042495924341 1:12.2 2:0.0 3:8.3 4:0.0 5:0.0 
-1.0 -0.6327534387340983 0.1362875199031658 0.0909292609446446 1:39.7 2:0.0 3:3.9 4:0.0 5:0.0 
-1.0 -0.4730059600286345 0.026615171203081586 0.018476271534271685 1:3.5 2:0.0 3:3.1 4:0.0 5:0.0 
-1.0 -0.608277621523401 0.11400338708140992 0.07387076822988559 1:3.1 2:0.0 3:13.4 4:0.0 5:0.0 
-0.4529050826934855 -0.26346792162377347 0.05657438618239805 0.037693151123769524 1:24.1 2:0.9 3:1.9 4:1.5 5:0.0 
-0.6245321622673566 -0.36349681563139297 0.07866853364070725 0.052335233514777466 1:24.9 2:0.0 3:0.9 4:0.3 5:0.0 
-0.83322348056123 -0.5033184683984394 0.1080254981427079 0.07181479712495559 1:9.8 2:0.9 3:15.8 4:0.0 5:0.0 
-0.9990917006512304 -0.5060633400606608 0.10767780330988265 0.0718744945867297 1:8.3 2:0.0 3:17.7 4:0.0 5:0.0 
-1.0 -0.3795603495009089 0.08870956428424404 0.059473365882836235 1:1.3 2:0.0 3:15.0 4:0.3 5:0.9 
-1.0 -0.6327011976951371 0.13624110312187665 0.09086133437099841 1:5.4 2:0.0 3:23.6 4:1.5 5:1.8 
-1.0 -0.2628709935269674 0.020206368162762323 0.012243623120774528 1:2.0 2:0.0 3:0.0 4:0.0 5:0.0 
-1.0 -1.0 0.1125144701664535 0.07587205711798807 1:0.8 2:0.0 3:0.3 4:0.0 5:0.0 
-0.7773336621322655 -0.45228935706701956 0.09756339902750522 0.06510282852801312 1:27.3 2:0.0 3:2.2 4:0.9 5:0.0 
-1.0 -1.0 0.10374500212598335 0.0699207969270929 1:2.8 2:1.8 3:4.1 4:0.9 5:0.0 
-1.0 -0.6532386433024913 0.13283983040979522 0.0890527248430385 1:9.5 2:0.9 3:10.5 4:2.4 5:0.0 
-1.0 -0.623868044884866 0.13104750280743233 0.08771129594331287 1:8.4 2:0.9 3:4.6 4:0.4 5:1.8 
-1.0 -1.0 -1.0 0.6669913160942001 1:6.8 2:10.8 3:2.1 4:9.4 5:0.0 
-1.0 -1.0 -1.0 0.6669934975557242 1:0.8 2:0.9 3:1.2 4:8.4 5:0.0 
-1.0 -1.0 -1.0 0.6660151863500755 1:0.0 2:0.0 3:9.1 4:0.9 5:0.0 
-1.0 -1.0 -1.0 -1.0 1:0.0 2:13.1 3:0.2 4:2.9 5:0.0 
-1.0 -1.0 -1.0 -1.0 1:1.1 2:6.6 3:0.9 4:2.7 5:0.0 
