svm_type c_svc
kernel_type rbf
gamma 0.25
nr_class 4
total_sv 87
rho -0.4489256315439859 -0.26793075825469537 -0.9369335011115191 0.19629034604202703 -0.8644428654054114 -0.9267894499730316
label 1 4 3 2
nr_sv 38 18 29 2
SV
1.0 0.5152359191009745 0.03631756589558198 1:1.0 2:0.0 3:0.0 4:0.9 
0.1896915414412373 0.27096127734840414 0.022227860318008573 1:8.0 2:0.0 3:1.9 4:0.0 
0.10101258376413605 0.13384465251005603 0.011752428843903338 1:20.0 2:0.0 3:0.9 4:0.9 
0.4237761429494989 1.0 0.04874868046740328 1:6.0 2:0.0 3:4.0 4:0.0 
0.2730996940218514 0.3626991522133542 0.030853552488098138 1:13.8 2:0.0 3:1.8 4:1.8 
0.5404161096952992 0.7174209549195054 0.06312154856784596 1:5.0 2:4.0 3:0.0 4:0.0 
0.3738897566722503 0.49695592555250856 0.043439031501586046 1:13.6 2:0.0 3:0.0 4:6.4 
0.3113882363762708 0.4504610090717477 0.03818358794176373 1:7.0 2:0.0 3:0.0 4:1.8 
0.13889321767306137 0.18497003579084192 0.01578432482442291 1:14.8 2:0.0 3:0.0 4:0.0 
0.5344618489929975 0.44132047801037794 0.036552450994437796 1:7.0 2:0.0 3:0.0 4:5.5 
0.5041888338330611 0.6701769713080798 0.05777840743506499 1:28.6 2:0.0 3:0.0 4:0.0 
0.2713433476914275 0.36096983902816454 0.03135940948963558 1:14.0 2:0.0 3:1.9 4:0.0 
0.09054850180348727 0.11985375331488818 0.010858334905358785 1:13.0 2:0.0 3:0.0 4:1.0 
0.3115430112959902 0.4141111240636718 0.03552236880406579 1:21.0 2:0.0 3:0.0 4:0.0 
0.5509921162599845 0.8031374638833122 0.0632510438102052 1:11.0 2:0.0 3:7.9 4:0.0 
0.4571453402201379 0.3769974625303839 0.033951248995492636 1:6.0 2:0.0 3:0.0 4:5.0 
0.2904674157549361 0.3850425457506509 0.032115216567110264 1:12.0 2:0.0 3:0.0 4:0.0 
0.0 0.4185245109226789 0.0 1:3.0 2:0.0 3:1.0 4:0.0 
0.3867933682102237 1.0 0.04515105000888241 1:3.6 2:0.0 3:2.9 4:0.0 
0.5399846100596254 0.717579443605734 0.061869472424531155 1:10.0 2:4.0 3:0.0 4:0.0 
0.11088768066015228 0.1448378647997509 0.012366273045741841 1:8.0 2:0.0 3:0.0 4:0.0 
0.2546404616389517 0.3494014920760968 0.03429020748061878 1:5.6 2:0.0 3:0.0 4:0.0 
0.1385298553897323 0.19297823671319128 0.01831864726270862 1:10.0 2:0.0 3:0.0 4:0.0 
0.37841702185986525 0.5028158715358375 0.04329199561682707 1:25.7 2:0.0 3:0.0 4:0.0 
0.5509353513783085 0.7321265506751843 0.06315624781026324 1:39.0 2:0.0 3:0.0 4:0.0 
0.32838064533857597 0.08068650557973021 0.0 1:1.0 2:0.0 3:0.0 4:0.0 
0.3683713805810513 0.4897646868621635 0.04195823237142213 1:19.0 2:0.0 3:0.0 4:1.8 
0.3075675553626419 0.40810554037788016 0.03517727210657057 1:15.6 2:0.0 3:0.0 4:2.0 
0.32368556346690835 0.4299059234371116 0.03729206251787214 1:23.6 2:0.0 3:0.0 4:0.0 
0.0836106703672197 0.09966833405167991 0.007034326726440311 1:9.0 2:0.0 3:0.0 4:0.0 
1.0 0.36410307690416593 0.0 1:3.0 2:0.0 3:0.0 4:2.0 
0.07133332325088333 0.0 0.006879146871969376 1:6.2 2:0.0 3:2.0 4:0.0 
0.03606530846318085 0.04029937082747695 0.002379207031592596 1:5.0 2:0.0 3:0.0 4:0.0 
0.46598454098255027 0.6188642584398851 0.05312548488100569 1:22.0 2:0.0 3:2.7 4:0.0 
0.29736602102916665 0.38922452442493816 0.03375135053055887 1:10.0 2:0.0 3:1.8 4:0.0 
0.33666045927457294 0.44756413363205644 0.03826550976267493 1:13.0 2:0.0 3:0.0 4:4.9 
0.34909225201590144 0.46415941064662114 0.04017619747320888 1:17.0 2:0.0 3:0.0 4:0.0 
1.0 1.0 0.8137002542271264 1:1.0 2:0.0 3:0.0 4:0.0 
-1.0 0.7833462598230522 0.09540841235840493 1:0.0 2:0.0 3:0.0 4:8.0 
-1.0 1.0 0.9534750086777541 1:0.0 2:0.0 3:0.0 4:0.9 
-1.0 0.3768508246770426 0.0 1:2.0 2:0.0 3:0.0 4:2.8 
-1.0 0.6949000665087596 0.0 1:0.0 2:0.0 3:0.0 4:1.0 
-1.0 1.0 0.1211787385488613 1:0.0 2:0.0 3:0.0 4:15.9 
-0.9912049003055796 0.8058871172754132 0.08502002481458941 1:3.0 2:0.0 3:0.0 4:6.0 
-1.0 1.0 0.12051292982923223 1:0.0 2:0.0 3:0.0 4:13.0 
-0.5332081074135038 0.5463194242376632 0.047615573853651026 1:0.0 2:0.0 3:1.0 4:6.9 
-0.0 0.5762341221802848 0.0 1:0.0 2:0.0 3:0.0 4:4.0 
-0.8735168426818944 0.0 0.0 1:1.0 2:0.0 3:0.0 4:2.0 
-0.4510036878432897 0.1965392077980532 0.0 1:1.0 2:0.0 3:0.9 4:27.8 
-0.9979490851277247 1.0 0.13556790198316326 1:1.0 2:0.0 3:0.9 4:27.8 
-0.24606556143903646 1.0 0.0 1:0.0 2:0.0 3:1.0 4:1.9 
-0.7755449943017988 0.5871357378951676 0.08940737906843196 1:3.0 2:0.0 3:0.0 4:4.0 
-0.0 0.0024312339968294403 0.0 1:0.0 2:0.0 3:0.0 4:5.0 
-1.0 1.0 0.13550261248315593 1:15.0 2:0.0 3:0.0 4:16.5 
-0.822670588662312 0.5722652692560211 0.08343197417768444 1:0.0 2:0.0 3:0.0 4:5.0 
-1.0 1.0 0.1328794442050713 1:6.4 2:0.0 3:0.0 4:7.6 
-0.43773953475291427 -0.20960529781302487 0.029506931730998172 1:0.0 2:0.0 3:5.8 4:0.0 
-0.0 -0.49920220401252396 0.0 1:0.0 2:0.0 3:2.4 4:1.9 
-1.0 -0.8013825886466434 0.072948212181783 1:0.0 2:0.0 3:13.9 4:5.0 
-6.845294788182521E-4 -0.0 0.0 1:0.0 2:0.0 3:1.8 4:0.0 
-1.0 -0.6391550570355934 0.05514718816706327 1:3.0 2:0.0 3:3.7 4:0.0 
-1.0 -0.0024099479730769263 0.0 1:2.0 2:0.0 3:2.8 4:0.0 
-1.0 -0.7133429164096301 0.06475116358167914 1:8.0 2:0.0 3:9.2 4:0.0 
-1.0 -0.7880566815965063 0.07187321553856822 1:0.0 2:0.0 3:6.2 4:5.0 
-0.12291228143379368 -0.06756092050715992 0.0 1:0.0 2:0.0 3:8.8 4:0.0 
-0.0 -0.02000270755535969 0.0 1:0.0 2:0.0 3:1.9 4:0.9 
-0.3298655204812026 -0.19800781653771363 0.0 1:0.0 2:0.0 3:4.5 4:0.0 
-0.07654236978071992 -0.18132099577209637 0.0 1:1.0 2:0.0 3:5.1 4:0.0 
-0.0064039873041446815 -0.0 0.0 1:0.0 2:0.0 3:13.1 4:0.0 
-0.5630718327015588 -0.36149336273702937 0.029942392191837974 1:0.0 2:0.0 3:6.9 4:0.9 
-0.6704472957170867 -0.4130374557232501 0.038232648083799343 1:0.0 2:0.0 3:11.4 4:0.9 
-0.3456776120369617 -0.23232556228979773 0.02767046488186423 1:0.0 2:0.0 3:8.2 4:0.0 
-0.47753742521908304 -0.027478250766048786 0.0 1:0.0 2:0.0 3:3.2 4:3.0 
-0.4770018350706605 -1.0 0.0 1:0.0 2:0.0 3:1.7 4:0.9 
-1.0 -0.8022351816494038 0.0730982807824761 1:0.0 2:0.0 3:18.4 4:0.0 
-0.41695489653360396 -0.2652542594854813 0.02375658643048119 1:1.0 2:0.0 3:9.7 4:0.0 
-1.0 -0.6785242421171053 0.06172673586918578 1:0.0 2:0.0 3:13.5 4:0.0 
-0.9617708545542982 -1.0 0.061450147811276466 1:0.0 2:0.0 3:1.9 4:4.0 
-0.42676020584778396 -0.27355907121363243 0.02638143530539659 1:1.0 2:0.0 3:9.6 4:1.0 
-1.0 -1.0 1.0 1:0.0 2:0.0 3:0.9 4:0.0 
-0.9219070482058382 -0.5347988496875378 0.04829578950279561 1:6.0 2:0.0 3:7.4 4:0.0 
-0.10275747066953127 -0.0 0.0 1:0.0 2:0.0 3:1.8 4:0.0 
-1.0 -0.6295136375700903 0.057727953699906985 1:6.0 2:0.0 3:5.0 4:0.0 
-1.0 -0.8036422565495814 0.07341957735485298 1:11.0 2:0.0 3:14.8 4:0.0 
-0.2567336001211042 -0.0 0.18407127688603492 1:0.0 2:1.0 3:3.0 4:1.0 
-1.0 -1.0 -1.0 1:0.0 2:2.0 3:0.0 4:0.0 
-1.0 -1.0 -1.0 1:0.0 2:1.0 3:0.9 4:0.0 
