svm_type c_svc
kernel_type rbf
gamma 0.1111111111111111
nr_class 9
total_sv 414
rho -0.5403490898530845 0.8074144469729491 -0.777904066947121 -0.1509198729210966 -0.6512151481416845 -0.8980293721185666 -0.9791780525662503 -0.979238687668452 0.906977578519761 -0.5390847304680212 0.4285714856269357 -0.25652702076834144 -0.790477128608432 -0.9562683325582875 -0.9562683325582875 -0.9583502484186394 -0.8279091626846242 -0.9303185434442958 -0.9793438452702355 -0.9958316302336304 -0.9969405949269614 0.7313261019199793 0.3911448055933853 -0.5453771518772393 -0.8999919924157528 -0.8999919924157528 -0.5745139985139828 -0.8778588844065881 -0.9749693212549577 -0.9749693379311871 -0.7221175493362431 -0.9411591070147415 -0.9411591070147415 -0.75 -0.7500148185954458 0.0
label 8 3 2 7 4 6 1 5 -1
nr_sv 51 23 263 11 42 17 5 1 1
SV
0.45973797020643276 1.0 0.22179339311782847 0.8487258735614919 0.3490165059715177 0.10185197773580301 0.020912708580972716 0.020851809175374214 1:0.0 2:5.1 3:0.3 4:0.6 5:0.6 6:45.9 7:0.0 8:2.0 9:754.0 
0.5518038872933482 1.0 0.2180818093380613 0.832169708667903 0.34228781514394885 0.10026022339774988 0.02028911787860547 0.020230034416788743 1:0.4 2:0.0 3:0.6 4:0.0 5:0.0 6:0.9 7:0.0 8:2.0 9:315.0 
0.46836608737888774 1.0 0.222136863534743 0.8496195117173979 0.3486586966636075 0.10200132951886626 0.02075372185043719 0.020693285426348268 1:1.6 2:0.0 3:0.3 4:0.8 5:0.9 6:0.0 7:0.9 8:2.0 9:408.0 
0.4596834090880245 1.0 0.22218527593094461 0.8493089499598104 0.34885904790336997 0.10169333466073355 0.020755885075650737 0.020695442352084537 1:4.4 2:0.9 3:21.1 4:1.8 5:0.0 6:0.6 7:0.0 8:2.0 9:481.0 
0.45949706274047386 1.0 0.2225186159563553 0.8489070355290524 0.3486002427452477 0.10192390395396267 0.020694383846328546 0.020634120219042373 1:0.0 2:9.4 3:0.0 4:0.0 5:3.6 6:0.9 7:0.0 8:2.0 9:875.0 
0.45937083268319134 1.0 0.2225193549437598 0.8491556682372794 0.34890740195919034 0.10217978306265424 0.020685959349285243 0.0206257202547781 1:0.0 2:0.6 3:0.0 4:0.0 5:0.0 6:0.0 7:0.0 8:2.0 9:578.0 
0.4561686205009962 1.0 0.22020403716354559 0.8421973833127561 0.34589865742061904 0.10116291757543588 0.020814339606706915 0.020753726659078965 1:0.0 2:0.8 3:0.5 4:0.0 5:0.9 6:0.0 7:0.0 8:2.0 9:565.0 
1.0 1.0 0.22168416182553108 0.8621142935738891 0.3490392146590385 0.10151193659249336 0.021315654055962373 0.02125358124234618 1:0.0 2:0.9 3:0.9 4:0.0 5:0.9 6:0.0 7:0.7 8:2.0 9:337.0 
0.45973887337983443 1.0 0.24912407029080025 0.8500367155413265 0.3488544768748048 0.10207238827224269 0.020679308206332625 0.020619088480462067 1:0.0 2:2.1 3:0.0 4:3.3 5:0.9 6:0.0 7:1.6 8:2.0 9:475.0 
0.4597386211862567 1.0 0.22222151764245618 0.8545629490144896 0.34890740443636087 0.1018566812174379 0.02067373488551716 0.02061353138958283 1:0.0 2:0.7 3:0.0 4:1.2 5:0.0 6:0.0 7:0.0 8:1.0 9:169.0 
0.4572575249581744 1.0 0.22085056772310008 0.8452988275436573 0.34680652260343686 0.1017939470181522 0.020580814579563268 0.020520881674661186 1:0.0 2:5.1 3:0.0 4:0.0 5:0.0 6:5.2 7:0.0 8:-2.0 9:446.0 
0.4357382816358855 1.0 0.21018299390523415 0.8097676748877549 0.3303593026693935 0.09645592170806866 0.01970057223332289 0.01964320266140357 1:0.0 2:0.0 3:1.1 4:0.0 5:0.0 6:0.0 7:0.0 8:-1.0 9:443.0 
0.45992010949804396 1.0 0.22196422419749567 0.8495601184796642 0.3486258526218373 0.10217081820215479 0.02098050454288318 0.0209194077102624 1:0.0 2:1.9 3:0.0 4:0.0 5:0.9 6:6.3 7:0.9 8:-1.0 9:465.0 
0.2613524664497443 1.0 0.1449937189262691 0.5194633338961798 0.2266868239647834 0.06632399438183492 0.013567689894860069 0.013528179745003477 1:0.0 2:0.0 3:0.0 4:0.0 5:0.0 6:0.6 7:0.0 8:-1.0 9:346.0 
0.4597387100906231 1.0 0.22204402896427028 0.8489917212992253 0.3489735991775418 0.10155261713299257 0.020742965925598045 0.020682560823584106 1:0.0 2:0.0 3:0.0 4:0.0 5:0.9 6:2.4 7:0.0 8:-2.0 9:750.0 
0.4600281494901996 1.0 0.22220491658749364 0.8488504257854674 0.34890085090659023 0.10224046123134217 0.02080715885769072 0.020746566820952737 1:1.3 2:0.7 3:2.4 4:1.1 5:1.8 6:0.0 7:0.0 8:-1.0 9:362.0 
0.4599592652506753 1.0 0.22179339311782864 0.8490326441312637 0.3554343695937184 0.10159636999687194 0.020912708571408367 0.02085180916583762 1:0.7 2:0.3 3:0.0 4:0.0 5:2.7 6:1.0 7:1.6 8:2.0 9:771.0 
0.4599537545905629 1.0 0.22185266088351988 0.8488995630442372 0.34881819593201274 0.10213426814463494 0.020678461138881266 0.02061824387973596 1:0.0 2:2.8 3:0.0 4:0.0 5:0.9 6:1.4 7:0.9 8:2.0 9:430.0 
0.5839414791200954 1.0 0.1277802568401818 0.5578655626464001 0.20145034316105587 0.05902296028880011 0.011871952486614382 0.01183738045368371 1:0.0 2:0.0 3:0.0 4:0.0 5:0.0 6:0.0 7:0.0 8:2.0 9:345.0 
0.4593441373456238 1.0 0.22253449329577454 0.8499706579004873 0.38254305950953726 0.10213528446675671 0.020742965925355294 0.02068256082334219 1:0.6 2:5.4 3:4.5 4:0.5 5:0.0 6:0.0 7:1.3 8:2.0 9:394.0 
0.3694277837392381 1.0 0.178527338295527 0.6824041288417049 0.28008440298743786 0.081760480268126 0.01673184041049114 0.016683116012519317 1:1.7 2:1.5 3:1.3 4:0.8 5:2.7 6:0.0 7:1.8 8:2.0 9:298.0 
0.4597017782892049 1.0 0.22200365344662415 0.8486647636637006 0.4672864318810128 0.1022821866426722 0.02045062317301296 0.02039106939543621 1:2.7 2:3.9 3:3.7 4:0.0 5:0.0 6:2.7 7:0.0 8:2.0 9:416.0 
0.34599672132557724 1.0 0.16712496214825678 0.6396287877749043 0.26229367293941697 0.07668467910579906 0.015770337010075054 0.01572441258348616 1:0.0 2:4.1 3:1.0 4:0.0 5:0.0 6:0.7 7:0.9 8:2.0 9:297.0 
0.46030716468616384 1.0 0.22242183003173782 0.848881771707929 0.34850103952114153 0.10226500282954515 0.020911036603636426 0.02085014206696357 1:2.3 2:5.5 3:5.3 4:0.9 5:0.0 6:0.6 7:2.7 8:-2.0 9:465.0 
0.45953221761790364 1.0 0.22244658182277297 0.8515724467768814 0.34894280301127467 0.10192389230150548 0.020827449597810126 0.02076679847288641 1:0.9 2:3.5 3:2.9 4:3.4 5:0.0 6:1.8 7:3.6 8:-1.0 9:380.0 
0.44866921892024597 1.0 0.21616689929038727 0.8279180448064182 0.3402804923130668 0.09975949746639301 0.020162088008685748 0.02010337446755862 1:3.9 2:0.4 3:2.2 4:0.6 5:0.0 6:0.3 7:0.0 8:-1.0 9:646.0 
0.4593708359614067 1.0 0.22251861595635536 0.8490213604630961 0.34934159943260645 0.10213576782602918 0.020922463276255965 0.020861535464239245 1:2.8 2:0.4 3:6.7 4:1.2 5:0.0 6:0.0 7:0.0 8:-1.0 9:544.0 
0.4599592652506753 1.0 0.22180848373874412 0.8489917205827295 0.34887616700462076 0.10212040140561912 0.020912708580972716 0.02085180917537427 1:0.0 2:0.9 3:3.3 4:0.0 5:3.6 6:2.4 7:0.0 8:-2.0 9:825.0 
0.4596996052411693 1.0 0.22220310057546228 0.8487899603794796 0.3487901511316939 0.10177586234744744 0.020980513619323595 0.020919416760271557 1:0.2 2:0.0 3:0.3 4:0.0 5:4.5 6:0.0 7:0.0 8:2.0 9:421.0 
0.2627331379785534 1.0 0.14031140669288922 0.6443312205372937 0.22008523355885903 0.06435105580161912 0.012982022894621234 0.012944218251827715 1:1.8 2:0.0 3:1.8 4:0.6 5:0.9 6:0.0 7:0.0 8:1.0 9:346.0 
0.4466218161023684 1.0 0.21383630735183953 0.826456435302832 0.33876769369049986 0.098884947983141 0.02017277159064268 0.02011402693810843 1:0.7 2:0.0 3:3.3 4:0.0 5:0.0 6:0.0 7:0.9 8:-2.0 9:280.0 
0.3715578070839615 1.0 0.1793792634817984 0.6872351453903977 0.28175678675191007 0.08237765938743344 0.01684530024854386 0.016796245446852764 1:0.7 2:0.0 3:0.0 4:0.9 5:0.0 6:0.0 7:0.0 8:-1.0 9:267.0 
0.45370771332671944 1.0 0.21903550314597317 0.8391127003105631 0.3446821116901441 0.10058341003127863 0.021012814316979718 0.020951623395827484 1:0.2 2:0.0 3:0.0 4:0.0 5:0.9 6:3.6 7:0.0 8:-1.0 9:643.0 
0.45419364529176504 1.0 0.21924271476679424 0.8383729388892842 0.34455884940760684 0.10094503058135179 0.0204179437989732 0.020358485186231085 1:0.8 2:0.0 3:2.2 4:1.2 5:0.0 6:0.0 7:0.0 8:1.0 9:651.0 
0.35960818758598895 1.0 0.17402431738060825 0.6648821041964647 0.2731838152589625 0.08009188736902392 0.016281738841524333 0.016234325173719463 1:0.0 2:1.7 3:0.3 4:0.0 5:0.0 6:0.3 7:0.7 8:1.0 9:498.0 
0.4600280971975594 1.0 0.22211325314590197 0.8491836393285471 0.34857048622115555 0.10227845068975716 0.02082497973268241 0.020764335800194485 1:0.0 2:0.3 3:0.2 4:2.3 5:2.7 6:2.1 7:0.0 8:1.0 9:370.0 
0.45201880597565897 1.0 0.21847986623756158 0.8347735858978027 0.34446189801538935 0.10038125625527011 0.020336369642943664 0.020277148580378046 1:1.6 2:0.0 3:0.7 4:0.0 5:0.9 6:2.7 7:0.0 8:-1.0 9:272.0 
0.4509020633340468 1.0 0.2094624664521215 0.8015528689503101 0.32963238186176796 0.09617683422857076 0.01968760198567939 0.019630270184112585 1:0.0 2:0.0 3:0.7 4:0.0 5:0.0 6:1.0 7:0.0 8:-1.0 9:448.0 
0.4469369868355668 1.0 0.2871802695213015 0.8461141406655185 0.3387552658875151 0.09865305265583342 0.020127624841654368 0.020069011659902825 1:0.0 2:0.7 3:1.1 4:0.3 5:0.0 6:0.0 7:0.9 8:-1.0 9:285.0 
0.45956999243621627 1.0 0.2225186159563553 0.8491627804145021 0.34867827200579815 0.10177400010201326 0.02126922052986674 0.02120728293422741 1:0.0 2:0.0 3:0.0 4:0.0 5:0.0 6:0.0 7:0.0 8:-1.0 9:25.0 
0.38330654809600384 1.0 0.18531434851211354 0.7071940959437251 0.2925024343212348 0.08452045928580518 0.01779603576441252 0.017744212348240973 1:0.0 2:0.6 3:1.0 4:0.0 5:0.0 6:0.0 7:1.6 8:-1.0 9:264.0 
0.45914460830496623 1.0 0.23639518426932105 0.8487401492252349 0.43340055968975233 0.10211834932797362 0.020679266850855416 0.02061904724541541 1:0.0 2:1.2 3:1.1 4:0.3 5:0.0 6:0.0 7:0.0 8:1.0 9:326.0 
0.36007075880366557 1.0 0.17416874132261811 0.6646935104090741 0.273552838744828 0.07955489034260198 0.016405579556607153 0.01635780525517566 1:0.0 2:0.0 3:0.3 4:0.0 5:0.0 6:0.7 7:0.0 8:-1.0 9:500.0 
0.4595322700283348 1.0 0.22202297613906935 0.8491351119655939 0.34863829757864645 0.10243610316349189 0.020809564923482182 0.023661042303041224 1:0.0 2:0.0 3:2.5 4:0.0 5:0.9 6:0.0 7:0.0 8:1.0 9:238.0 
0.45953943083819604 1.0 0.22203305893798037 0.8486785741939695 0.34885255781493035 0.10185473142842999 0.020809191255471322 0.020748593300235832 1:1.4 2:5.6 3:0.3 4:4.6 5:0.0 6:0.0 7:3.6 8:1.0 9:491.0 
0.45240469210809175 1.0 0.217669682886513 0.8330001100704453 0.3418923880874357 0.10028798014850768 0.020288878025766587 0.020229795262419782 1:0.2 2:0.6 3:0.7 4:0.0 5:0.0 6:0.0 7:0.0 8:-1.0 9:310.0 
0.4595286221926615 1.0 0.2218656832949386 0.8496734292495453 0.34883664827994576 0.10169317980477871 0.020449022646280512 0.020389473529560165 1:0.0 2:0.5 3:0.9 4:0.4 5:2.7 6:2.1 7:0.9 8:-1.0 9:512.0 
0.3193775564527423 1.0 0.15444057785052484 0.5898933963813289 0.24356570624640736 0.0707412890217054 0.014740665863563839 0.014697739918043917 1:0.4 2:1.9 3:2.4 4:0.0 5:0.0 6:0.0 7:0.0 8:1.0 9:299.0 
0.45574638070203705 1.0 0.22009037979660628 0.842107817263345 0.3462535510281131 0.10116291807845107 0.020506785304957205 0.020447067978960308 1:0.0 2:4.1 3:0.2 4:0.3 5:0.0 6:0.8 7:5.4 8:1.0 9:566.0 
0.4599956055383498 1.0 0.22251861595635525 0.8491452565316504 0.348669325632895 0.10225345206300868 0.02087505407949425 0.020814264326681597 1:0.0 2:1.3 3:0.4 4:0.0 5:0.7 6:1.6 7:0.0 8:-1.0 9:1021.0 
0.4594714398678867 1.0 0.2220226596206482 0.8487406225095988 0.34867775408631824 0.10212828527412154 0.020851899532757234 0.020791177207754252 1:2.4 2:1.8 3:1.3 4:1.6 5:0.0 6:0.0 7:0.9 8:-1.0 9:522.0 
-1.0 1.0 0.4606834106971583 1.0 0.7438387155649887 0.21001257500053852 0.04411229200486799 0.04411229200486799 1:1.1 2:6.1 3:13.0 4:0.6 5:0.0 6:0.0 7:0.7 8:2.0 9:488.0 
-1.0 1.0 0.4614069366444203 1.0 0.7430020995416283 0.20924752005301123 0.04323921425864513 0.04323921425864513 1:3.7 2:1.5 3:27.3 4:0.3 5:0.0 6:0.9 7:0.0 8:2.0 9:357.0 
-1.0 1.0 0.46065025662737835 1.0 0.743840473730589 0.21001310569540266 0.04411219783775061 0.04411219783775061 1:5.8 2:0.0 3:30.0 4:2.3 5:0.0 6:0.7 7:0.0 8:2.0 9:481.0 
-1.0 1.0 0.46140441220755146 1.0 0.7436061638843725 0.20923902539670125 0.044115446390270874 0.044115446390270874 1:2.3 2:0.4 3:15.0 4:0.3 5:0.0 6:0.0 7:0.0 8:2.0 9:261.0 
-1.0 1.0 0.44952510516177446 1.0 0.7249251074159847 0.20418454551129825 0.042245241533416134 0.042245241533416134 1:0.0 2:0.6 3:8.0 4:1.8 5:0.0 6:0.0 7:0.0 8:2.0 9:214.0 
-1.0 1.0 0.46065352906718154 1.0 0.7436061621140141 0.20925662753019342 0.04411539203137596 0.04411539203137596 1:2.3 2:1.6 3:8.9 4:0.4 5:0.0 6:0.0 7:1.6 8:-2.0 9:803.0 
-1.0 1.0 0.4613624403520771 1.0 0.742899023786741 0.20999008657187612 0.044110729931555626 0.044110729931555626 1:1.0 2:2.3 3:18.5 4:1.7 5:0.9 6:0.0 7:0.9 8:-2.0 9:581.0 
-1.0 1.0 0.4614070904190419 1.0 0.7438425390695522 0.20924150255316382 0.04411219783775072 0.04411219783775072 1:1.5 2:0.0 3:4.1 4:0.9 5:3.6 6:0.9 7:0.0 8:2.0 9:448.0 
-1.0 1.0 0.4497109348511468 1.0 0.7252510091784553 0.20427248609848397 0.0422548406288978 0.0422548406288978 1:1.4 2:0.3 3:8.5 4:0.9 5:0.0 6:0.0 7:1.8 8:-2.0 9:340.0 
-1.0 1.0 0.44951264826093285 1.0 0.7258179212605551 0.20417611577877207 0.04232560716946154 0.04232560716946154 1:0.7 2:0.0 3:2.6 4:0.0 5:0.0 6:0.0 7:0.0 8:2.0 9:214.0 
-1.0 1.0 0.4606497893658596 1.0 0.7438884007575768 0.2100125728487909 0.04411208821892976 0.04411208821892976 1:1.6 2:0.8 3:10.8 4:1.9 5:0.0 6:0.0 7:1.0 8:2.0 9:479.0 
-1.0 1.0 0.4606502566273785 1.0 0.7436281393855637 0.21011470513698843 0.044115395766283316 0.044115395766283316 1:0.0 2:4.5 3:4.0 4:0.6 5:1.8 6:1.2 7:0.4 8:2.0 9:406.0 
-1.0 1.0 0.451554960339566 1.0 0.7283512680392961 0.20511145324317573 0.042381719138451006 0.042381719138451006 1:0.5 2:2.0 3:2.5 4:0.0 5:0.0 6:0.0 7:1.8 8:2.0 9:337.0 
-1.0 1.0 0.46141558621011464 1.0 0.7436061671312346 0.20923902539670125 0.044112197837750666 0.044112197837750666 1:7.7 2:0.0 3:10.8 4:2.4 5:0.0 6:0.0 7:0.0 8:2.0 9:520.0 
-1.0 1.0 0.45257838122873845 1.0 0.7287668412496103 0.20524630378724534 0.042514234637927195 0.042514234637927195 1:0.3 2:0.6 3:0.5 4:0.0 5:0.0 6:1.1 7:0.0 8:2.0 9:342.0 
-1.0 1.0 0.46065025152258654 1.0 0.7430020945820457 0.21001310211420493 0.043375876839203825 0.043375876839203825 1:3.3 2:6.9 3:11.8 4:2.9 5:0.0 6:9.9 7:0.0 8:-2.0 9:798.0 
-1.0 1.0 0.46066929298906045 1.0 0.7439360839975914 0.20924725130116353 0.043341147142388514 0.043341147142388514 1:0.0 2:0.3 3:1.2 4:0.0 5:0.0 6:0.9 7:0.0 8:-2.0 9:317.0 
-1.0 1.0 0.45003576217329916 1.0 0.7267389856265473 0.2044239817462114 0.04236358750339801 0.04236358750339801 1:0.9 2:0.4 3:13.9 4:1.1 5:0.0 6:0.0 7:0.0 8:-2.0 9:341.0 
-1.0 1.0 0.4606205426905279 1.0 0.7437632719974653 0.2092110360581264 0.04410778388523545 0.04410778388523545 1:2.9 2:1.4 3:13.4 4:3.7 5:0.0 6:3.2 7:1.8 8:-2.0 9:587.0 
-1.0 1.0 0.46070078625872807 1.0 0.7438406053563709 0.2092518854268285 0.043239214258645076 0.043239214258645076 1:1.8 2:6.5 3:8.3 4:0.6 5:0.7 6:0.0 7:5.4 8:-2.0 9:630.0 
-1.0 1.0 0.461417912790195 1.0 0.7430020995414088 0.20923349036174232 0.04411539576627038 0.04411539576627038 1:3.6 2:2.9 3:12.7 4:4.0 5:0.0 6:0.0 7:2.5 8:-2.0 9:464.0 
-1.0 1.0 0.4614174551163259 1.0 0.7438511590871333 0.2100124465779362 0.04411533686083413 0.04411533686083413 1:0.7 2:3.1 3:11.2 4:1.3 5:0.0 6:0.0 7:2.7 8:-2.0 9:319.0 
-1.0 1.0 0.46065175023263283 1.0 0.7429956677012749 0.20923644258781854 0.04336286252069027 0.04336286252069027 1:0.3 2:0.3 3:4.4 4:0.0 5:0.0 6:0.0 7:0.0 8:-2.0 9:106.0 
-0.19263186123034215 -0.09287803254872024 0.04126460389287395 0.17201315899112624 0.07014829798126565 0.020835956743862794 0.00391563260546951 0.0032795099989731957 1:0.0 2:77.8 3:3.3 4:2.1 5:0.9 6:2.0 7:3.6 8:2.0 9:1070.0 
-0.17165189155207555 -0.08303502400050977 0.03696437353129872 0.15313788996862887 0.062039809899576415 0.01818857281229791 0.003678619590044496 0.002706986103417075 1:0.0 2:12.2 3:1.9 4:0.3 5:0.9 6:0.0 7:1.8 8:2.0 9:317.0 
-0.19223243826644887 -0.09285202224882694 0.04199026929959171 0.17164800216604498 0.0699568305248991 0.020668720464119605 0.0039025754717090244 0.0030325333998965087 1:0.4 2:13.9 3:0.4 4:2.1 5:0.9 6:2.1 7:0.9 8:2.0 9:617.0 
-0.18807365040627055 -0.09011492911579577 0.04097654879292845 0.16769431357955114 0.06789137618913271 0.020296425469372995 0.00390576360569917 0.003036252182013699 1:0.0 2:10.0 3:0.0 4:0.0 5:0.0 6:0.8 7:0.8 8:2.0 9:451.0 
-0.1916388491513335 -0.0925635866743659 0.04138818309589895 0.1715345247040589 0.06966118595871246 0.020291476866738267 0.0039030260226418844 0.003031348841356696 1:1.9 2:12.8 3:0.5 4:1.1 5:0.0 6:0.0 7:1.8 8:2.0 9:462.0 
-0.19068844724149675 -0.0923824566717551 0.04120577902470457 0.17003573391235466 0.0688964914563901 0.02061844367166062 0.003910011451959738 0.003279345112308929 1:0.0 2:8.6 3:0.5 4:6.2 5:0.0 6:0.0 7:0.0 8:2.0 9:318.0 
-0.19255119043475766 -0.09314188840562754 0.04155422791575769 0.17236999686777443 0.06967003310340764 0.02083678765400193 0.004451056382201738 0.0030365997874267636 1:0.5 2:16.8 3:1.6 4:2.1 5:0.0 6:1.9 7:0.0 8:2.0 9:865.0 
-0.19255017465069035 -0.0927334903574803 0.04161838762670189 0.17169474590849204 0.06961040021595272 0.02073594353727326 0.003909473962638501 0.0030397053643559935 1:0.0 2:19.9 3:0.9 4:1.2 5:0.0 6:2.4 7:0.0 8:2.0 9:462.0 
-0.043509403702708234 -0.024588806880870367 0.0056596720418953805 0.04307061312673356 0.01803258525562502 0.005659698841914447 8.049670145937049E-4 6.193519052941077E-4 1:0.0 2:5.7 3:0.4 4:0.0 5:0.0 6:1.8 7:0.0 8:2.0 9:282.0 
-0.19262580998622075 -0.09285732652979256 0.0411766130074564 0.17245053011098532 0.07002874129427866 0.020818374498169145 0.003919734700158661 0.003279464485240191 1:0.6 2:30.3 3:2.1 4:4.1 5:1.8 6:0.6 7:0.0 8:2.0 9:968.0 
-0.19273412132520934 -0.092820707034457 0.041648297718344884 0.1722709066564736 0.06981272586793696 0.020879633949211662 0.003921730939610124 0.0027882265997973277 1:1.4 2:41.0 3:6.8 4:1.3 5:0.9 6:1.0 7:1.8 8:2.0 9:1029.0 
-0.18976512087032243 -0.09174136393811416 0.04096760888067735 0.16976998233295906 0.0690190071596718 0.0204258681835426 0.003876925421672912 0.0030079462391800482 1:1.1 2:9.7 3:1.8 4:0.4 5:0.0 6:0.0 7:3.6 8:2.0 9:428.0 
-0.19249668403725906 -0.09333622049267126 0.04163537539937936 0.17183809613461398 0.06965352575108502 0.02082362737658222 0.0039062499998901443 0.0030367613678723496 1:0.3 2:17.6 3:0.2 4:2.0 5:1.8 6:6.3 7:5.4 8:2.0 9:623.0 
-0.19233112813246966 -0.09267422598892311 0.04148405760634172 0.17181728848918248 0.07005750603833166 0.020707991867893412 0.003906240834970645 0.003032637994196008 1:1.6 2:12.9 3:2.4 4:0.0 5:0.9 6:0.3 7:0.0 8:2.0 9:836.0 
-0.1926576992222333 -0.093364615991194 0.04165876946246966 0.17206243034575547 0.07001031534522845 0.020566838843589508 0.003923740631247508 0.002913680116087336 1:0.0 2:6.9 3:0.2 4:0.6 5:0.0 6:4.4 7:2.7 8:2.0 9:1138.0 
-0.19216199212515434 -0.09265035958529638 0.04153990607308422 0.17198253951343204 0.06923695986601452 0.02019330877849327 0.0039054791264823132 0.0030361615505543373 1:0.0 2:9.6 3:0.0 4:0.0 5:0.0 6:1.5 7:0.0 8:2.0 9:187.0 
-0.1926749671803828 -0.09336272257269929 0.04166752301874849 0.1720618858751667 0.07014625035572863 0.02020806866916608 0.0044327674340470385 0.003039274031079342 1:0.0 2:14.5 3:2.5 4:0.9 5:1.8 6:1.2 7:2.7 8:2.0 9:811.0 
-0.19263017215298767 -0.09337627687175326 0.041664082989296136 0.17244174368492238 0.0699419466679137 0.020823908478588615 0.004204475254596385 0.0030418874316492373 1:0.0 2:8.8 3:13.5 4:3.5 5:0.0 6:0.0 7:4.5 8:2.0 9:536.0 
-0.192665613021216 -0.09304120674696437 0.0421502342029334 0.17232315118260194 0.07008334964870128 0.02040629513277764 0.004346026586582882 0.003019358898903979 1:2.0 2:11.7 3:5.5 4:15.9 5:1.8 6:0.0 7:5.7 8:2.0 9:814.0 
-0.19254126899363322 -0.09317063840902345 0.041662146107459164 0.1718781405294082 0.06929357304815409 0.020320830669629864 0.00422887367729532 0.002914131385865326 1:0.3 2:10.5 3:1.5 4:14.0 5:0.0 6:0.0 7:11.5 8:2.0 9:724.0 
-0.20619333602545714 -0.11338594651946332 0.03145538434061952 0.13079022297870832 0.05241574309407532 0.015613094137202231 0.0033125913250458 0.0024826546897244173 1:0.0 2:1.8 3:0.0 4:1.9 5:0.0 6:0.0 7:0.0 8:2.0 9:319.0 
-0.19268982375527693 -0.09287451788270695 0.041656636503822175 0.1725635398335884 0.06954092659878774 0.020413297193793978 0.00426454194300957 0.0029102672655995088 1:0.0 2:24.3 3:0.8 4:1.7 5:0.0 6:0.0 7:4.5 8:2.0 9:442.0 
-0.8545416824507873 -0.0874869225245144 0.03943639326798526 0.1620630603013133 0.06533743447276585 0.019011183331400394 0.003906325153233079 0.002955446935191397 1:0.0 2:2.5 3:0.2 4:1.2 5:0.0 6:0.0 7:0.0 8:2.0 9:300.0 
-0.16554873833852185 -0.08024325946844087 0.036500872538560714 0.14891640103231912 0.0603957421400238 0.018177426127568175 0.0038755587166336425 0.0028862471378082177 1:0.0 2:7.2 3:0.3 4:1.4 5:0.0 6:1.9 7:5.2 8:2.0 9:368.0 
-0.19133050952751685 -0.09289980904559242 0.04132001835539156 0.17117579524599819 0.06974538061334751 0.020152809147863313 0.0039061916595985458 0.003036694920433569 1:0.0 2:4.0 3:0.0 4:0.0 5:2.0 6:7.6 7:0.0 8:2.0 9:492.0 
-0.11509668050487326 -0.05525178222383387 0.024802850245761066 0.10220128724300931 0.041361275244939155 0.012379756196085612 0.0033395988686107936 0.0021847043688569268 1:0.0 2:8.1 3:0.3 4:0.0 5:0.0 6:1.2 7:0.7 8:2.0 9:363.0 
-0.12217974565133038 -0.0598700512334107 0.023612810898651637 0.11033945947869185 0.044560086704318214 0.01330267391094889 0.002499551428892466 0.0018140301417404192 1:0.0 2:8.8 3:1.6 4:0.0 5:0.9 6:0.9 7:0.0 8:2.0 9:284.0 
-0.1922636374220245 -0.09301397190257304 0.041664090554936195 0.17241358325047113 0.06981020915524638 0.02067400462753949 0.004425272216573935 0.003043637009197908 1:1.4 2:23.5 3:5.4 4:2.6 5:0.7 6:2.9 7:2.5 8:2.0 9:1117.0 
-0.19221927103274267 -0.09311866024286547 0.04152847163736123 0.1723354118212136 0.07000384852951264 0.02082075098826014 0.0044960752763728625 0.003036761381416716 1:0.0 2:15.8 3:2.8 4:0.0 5:0.9 6:0.9 7:0.0 8:2.0 9:760.0 
-0.19251138065169204 -0.09330825985779112 0.04160073545624532 0.17216784207939162 0.06928737266031626 0.020671643070841877 0.003903768263466445 0.0030329639450407675 1:0.3 2:10.4 3:5.5 4:3.0 5:0.9 6:3.6 7:0.9 8:2.0 9:630.0 
-0.18866390889341234 -0.09144117349115809 0.040373231001237464 0.16843418218147532 0.06829391850144784 0.0203887252236441 0.003864713599169123 0.0029980365463584957 1:0.0 2:5.4 3:3.6 4:6.2 5:0.0 6:2.4 7:0.0 8:2.0 9:831.0 
-0.15804681666159803 -0.0762899360304164 0.03425533572987156 0.14131493904690295 0.05738777916805073 0.017127558509830665 0.003523954357487813 0.002332859362405515 1:0.0 2:11.3 3:0.0 4:0.0 5:0.0 6:1.3 7:1.1 8:2.0 9:648.0 
-0.43520678671972607 -0.058876624277170386 0.026436484203008523 0.10600257729111368 0.04208539529811557 0.013464803573518272 0.003361507628879567 0.0016071029846062325 1:0.0 2:1.5 3:0.0 4:0.0 5:1.8 6:0.0 7:0.4 8:2.0 9:312.0 
-0.12330259265765126 -0.05918824877262563 0.026403149257132774 0.10996840359781826 0.04459923891720524 0.013660547523842603 0.0028993758130950176 0.018687892448002716 1:0.9 2:5.6 3:0.4 4:0.3 5:0.0 6:0.9 7:0.0 8:-1.0 9:229.0 
-0.19221381293852702 -0.09277381805309864 0.041531895623559245 0.17247839330044884 0.0699099025564689 0.02047137045347386 0.0039478433262801205 0.0029536598596629493 1:2.8 2:17.0 3:2.2 4:1.5 5:0.0 6:0.0 7:15.4 8:2.0 9:1072.0 
-0.1384789447505438 -0.06621475310662209 0.03011720935684925 0.12332629639164872 0.05046094103112203 0.015219229337208455 0.003244454906418892 0.001987805750369831 1:0.0 2:9.9 3:0.0 4:0.0 5:0.9 6:1.5 7:1.8 8:2.0 9:280.0 
-0.1922818263434134 -0.09263046019767279 0.042073474598602945 0.17219968841247918 0.06921835192715081 0.020591170092228325 0.0039026093369391446 0.0030338859223209003 1:0.0 2:6.6 3:2.6 4:1.3 5:0.0 6:0.0 7:0.4 8:2.0 9:797.0 
-0.19250875361301928 -0.09256018406371413 0.041868079222660115 0.17193505325240055 0.07008133437944059 0.02083388091569105 0.003961805165453525 0.0029760784372754867 1:0.3 2:12.2 3:2.3 4:0.9 5:0.0 6:0.0 7:0.8 8:2.0 9:1547.0 
-0.22399271278860283 -0.07982059299399841 0.035807125466900444 0.14762653006989154 0.05974244323107997 0.017645975317758814 0.0035868573721085095 0.002457066529884311 1:0.0 2:4.3 3:0.2 4:0.0 5:0.9 6:2.5 7:0.9 8:-1.0 9:495.0 
-0.19210719911285656 -0.09336165756715936 0.04161284951100097 0.17158543816595379 0.06990354608302024 0.020315566890668935 0.004057706367394276 0.002971616701901547 1:0.0 2:11.5 3:0.2 4:0.0 5:3.6 6:3.4 7:0.9 8:1.0 9:776.0 
-0.19267236105836189 -0.09288870960233053 0.04202758672814605 0.1720624303457557 0.06960499178517193 0.02083898146473412 0.0039639361220229485 0.003033625930964179 1:0.9 2:11.3 3:4.3 4:1.5 5:16.2 6:0.6 7:0.9 8:2.0 9:1683.0 
-0.19633163816879878 -0.09262103617556605 0.04103050339518893 0.1708631788411319 0.06921674718369808 0.020160626036127026 0.003901026989175778 0.003029885726868742 1:1.4 2:4.4 3:4.1 4:0.0 5:0.0 6:4.2 7:3.6 8:2.0 9:427.0 
-0.19268158886688802 -0.09288688668124068 0.041965636402395645 0.17177387520575532 0.06957514918994251 0.020822308174744397 0.0039769565398001805 0.003044945996275028 1:0.4 2:9.0 3:0.2 4:1.3 5:0.0 6:1.8 7:1.8 8:-1.0 9:1087.0 
-0.19296556571328383 -0.09288640151750782 0.041332398398018166 0.17231266563176217 0.06968171009414187 0.021154738070756574 0.0042885446241441305 0.003005607150931955 1:0.0 2:22.9 3:1.4 4:1.4 5:0.0 6:5.4 7:0.0 8:-1.0 9:843.0 
-0.192168275614086 -0.09259827162939867 0.041387514104949674 0.171452903665422 0.06901802714748734 0.020322334295230293 0.0039062499390849392 0.0030267476599549203 1:1.5 2:12.4 3:1.1 4:0.3 5:0.0 6:0.0 7:1.2 8:-1.0 9:848.0 
-0.19283967481887238 -0.09302964591475144 0.04165534053794673 0.17188378158259743 0.06979277833284442 0.020755285566333215 0.004770785601678972 0.003004988122801977 1:0.0 2:4.2 3:0.7 4:1.8 5:0.0 6:0.0 7:8.1 8:1.0 9:755.0 
-0.19177833544313377 -0.09282317547934438 0.04145939577015173 0.1707900123445796 0.06950660978117135 0.02013414973684007 0.003906250060915073 0.003039577468758048 1:0.0 2:11.2 3:0.5 4:0.0 5:1.8 6:0.0 7:0.4 8:1.0 9:854.0 
-0.1924955340241581 -0.09317171987974371 0.041514056017462886 0.17214767707924922 0.07009126299609447 0.020242328072504423 0.003906250000067501 0.0030367613681325165 1:0.0 2:20.5 3:0.0 4:0.0 5:0.0 6:0.0 7:7.4 8:-1.0 9:623.0 
-0.18057540221803808 -0.0873540489852021 0.038993370376781133 0.16117644979059773 0.06493637269857111 0.01893412560121621 0.0037749474337321898 0.0027853955433223554 1:0.7 2:9.3 3:0.9 4:0.0 5:1.6 6:0.0 7:0.0 8:2.0 9:673.0 
-0.19148706038035396 -0.09224684309563169 0.04138809548941552 0.17063330862509227 0.06962716379845763 0.02062579993451854 0.003907990512569282 0.002935151417309101 1:0.8 2:10.4 3:1.7 4:0.3 5:0.9 6:5.6 7:3.6 8:-1.0 9:655.0 
-0.19246961542449048 -0.0928161163796708 0.041610553846999854 0.17206256143278642 0.0700273140880121 0.020836715715554566 0.004149520897624869 0.0029936884941934583 1:0.0 2:21.8 3:2.1 4:0.9 5:0.0 6:7.2 7:7.2 8:-2.0 9:852.0 
-0.17184942490704685 -0.08297643767652216 0.036746032252188844 0.15380568433044273 0.06182761467986442 0.01822089653052713 0.003763068745028353 0.0027804647416186487 1:0.9 2:9.5 3:0.0 4:0.0 5:0.0 6:0.0 7:0.0 8:1.0 9:372.0 
-0.31560340833688466 -0.08787739317505372 0.039150023647635146 0.16313691677234232 0.06544342565190064 0.019104282526662582 0.003779918620619549 0.002797315658002175 1:0.3 2:2.1 3:0.0 4:0.0 5:0.9 6:0.0 7:2.2 8:1.0 9:172.0 
-0.1906137342176068 -0.04447149261236674 0.02575492241536946 0.10540402424108544 0.04298020564430216 0.012290710332876653 0.0032607570923005036 0.0011347327623197345 1:0.0 2:2.2 3:0.0 4:0.0 5:0.0 6:1.8 7:0.9 8:-1.0 9:408.0 
-0.19224342925521748 -0.09324648243819167 0.04158384034916662 0.17206995339893133 0.0695458366706953 0.020691854191422887 0.0039062669401662715 0.003033945267263749 1:0.0 2:15.4 3:0.9 4:0.0 5:0.0 6:1.1 7:0.9 8:-1.0 9:1032.0 
-0.21141867221251592 -0.0829108278933221 0.03727245729353912 0.15383771746707275 0.06192118479438785 0.01829060786346176 0.0037724847586120824 0.002791776343548158 1:0.0 2:3.8 3:0.9 4:0.4 5:0.9 6:0.0 7:1.8 8:2.0 9:369.0 
-0.19222826494455963 -0.09308701654261392 0.04177570870770564 0.1724808766614227 0.0700962864231564 0.020220737978950888 0.004424607630173216 0.0030366445374855333 1:0.0 2:15.2 3:0.3 4:2.7 5:0.0 6:0.4 7:0.0 8:2.0 9:799.0 
-0.192578875869797 -0.09309517804949063 0.04161988400006955 0.17178455640381612 0.06975370299632008 0.020788958413781755 0.00390451635268102 0.003035114059154853 1:0.0 2:10.3 3:0.2 4:0.3 5:0.0 6:1.4 7:0.0 8:2.0 9:340.0 
-0.18987032281700977 -0.09175928344505008 0.041006146560348074 0.16977692509572762 0.06908145817385175 0.020412342262604292 0.0039059076011031075 0.003034613263919128 1:0.0 2:11.1 3:0.3 4:0.0 5:0.9 6:3.1 7:1.8 8:2.0 9:505.0 
-0.1922207419309529 -0.09282141840175995 0.04160208536948806 0.17200574248277428 0.07010846417403666 0.02027769450725203 0.004120879359740426 0.003017185213193996 1:0.0 2:11.5 3:1.2 4:0.3 5:0.0 6:1.4 7:0.0 8:2.0 9:603.0 
-0.19096842014195042 -0.09258941676938487 0.04141575524449981 0.17098589279866355 0.0691269731132289 0.020645591686144604 0.003906251542960643 0.00303661026306129 1:0.9 2:18.1 3:1.3 4:1.7 5:0.0 6:4.5 7:0.9 8:-1.0 9:1003.0 
-0.19143640295285586 -0.092596500897711 0.0413455149934533 0.17095422147168243 0.06927888853472439 0.020138278931194048 0.0039060230087511897 0.0030279068342966564 1:0.0 2:11.3 3:0.0 4:0.0 5:0.0 6:0.3 7:0.4 8:2.0 9:553.0 
-0.24405138742148597 -0.08717201887348741 0.039323473767265915 0.16146820060548392 0.0651232990507335 0.01893335428264134 0.003786923606472703 0.0028049657220993174 1:0.0 2:7.4 3:0.0 4:0.0 5:0.9 6:0.0 7:0.4 8:2.0 9:300.0 
-0.29750780439932084 -0.3520747635529486 0.04192524603964787 0.20057141666530842 0.0699643235133881 0.02033447165866259 0.003906261034923906 0.0030366010884985695 1:0.2 2:3.2 3:0.3 4:0.0 5:0.0 6:3.2 7:0.0 8:2.0 9:343.0 
-0.1408627991363317 -0.06797170520900359 0.030551930685779882 0.12551373920244485 0.050872143477457776 0.0149973145743932 0.003025214535377416 0.002398024557241742 1:0.2 2:7.3 3:1.8 4:4.6 5:0.9 6:3.7 7:0.9 8:-1.0 9:1189.0 
-0.14082132702325229 -0.06787862721496735 0.030753563050520794 0.1260303814016226 0.050814893441181064 0.015623639273209793 0.0030040301672711626 0.0021830050168772375 1:0.2 2:7.3 3:1.8 4:4.6 5:0.9 6:3.7 7:0.9 8:2.0 9:1189.0 
-0.19243507711212293 -0.09320406832352209 0.041620535951308546 0.17157658653078056 0.0696182839738837 0.020807610657617825 0.0039062483424413216 0.0030343974160112475 1:0.8 2:5.9 3:6.8 4:0.9 5:1.8 6:0.0 7:2.8 8:2.0 9:781.0 
-0.19805336665676807 -0.0924190848111559 0.04106858574485283 0.17074635476211703 0.06959581420247885 0.02014514161470874 0.0038928428840523943 0.0030228161750545657 1:0.2 2:6.3 3:3.7 4:1.5 5:0.0 6:1.3 7:2.7 8:2.0 9:500.0 
-0.18358461184063557 -0.0886564822088009 0.03955254798993724 0.16381376944641818 0.06635562583301965 0.019201359992659935 0.0038908391664808084 0.0030113342883609784 1:0.0 2:10.8 3:0.0 4:0.0 5:0.0 6:0.0 7:0.4 8:2.0 9:643.0 
-0.19218607630441403 -0.09319622329535542 0.041502966576606626 0.17230875707390483 0.07012200119787948 0.02081804192532699 0.003906251645347835 0.003039878309407662 1:0.0 2:3.8 3:0.0 4:1.2 5:2.9 6:0.0 7:0.0 8:2.0 9:783.0 
-0.19276300978348782 -0.09320635922675613 0.041669608839865924 0.17189929777089846 0.06967689381607461 0.020965933718981145 0.004414770405728796 0.0030396368125685247 1:1.0 2:15.5 3:2.8 4:0.0 5:0.0 6:1.8 7:2.7 8:2.0 9:474.0 
-0.19263144063312376 -0.09327198098925865 0.04153180487093883 0.17206085149339784 0.06951084288229076 0.02072892412287438 0.004040015241387909 0.0030369229434304423 1:0.2 2:3.5 3:1.3 4:0.6 5:0.0 6:2.3 7:0.0 8:-1.0 9:622.0 
-0.1922434292552176 -0.09294570335812385 0.041621560023398674 0.1722085959001874 0.06983678785993369 0.020678777078481203 0.003906266940166216 0.00297654027217803 1:0.8 2:12.2 3:2.1 4:0.6 5:2.7 6:0.3 7:5.0 8:2.0 9:1036.0 
-0.18923247730167575 -0.09182360676749263 0.04090354873506705 0.16950073042176522 0.06904748820581524 0.020518018874405637 0.0038800442828708648 0.0030109384389575 1:0.0 2:16.1 3:1.8 4:0.3 5:0.9 6:0.9 7:1.2 8:2.0 9:999.0 
-0.10107371915223534 -0.03938243905046054 0.023887009233908907 0.09948385272271726 0.037482140965755584 0.011539729868362436 0.0028859497301554904 0.001721170241030523 1:0.0 2:4.2 3:0.0 4:2.0 5:0.9 6:0.0 7:0.0 8:2.0 9:317.0 
-0.1849766720430046 -0.08914221764416459 0.03999975441672283 0.16512825869611006 0.06684673522816212 0.019907876232911095 0.003835581859416126 0.0028422566350391754 1:0.6 2:3.9 3:4.6 4:1.3 5:0.0 6:4.1 7:0.9 8:2.0 9:535.0 
-0.19215823898410248 -0.09286004229465905 0.0415592762279452 0.17211624773619327 0.0698805524300176 0.02103014930062744 0.003906295028354754 0.0030364992085865072 1:0.0 2:9.7 3:1.0 4:1.2 5:0.0 6:4.5 7:7.3 8:2.0 9:439.0 
-0.19266527769048936 -0.09296194442934824 0.04130537914210536 0.172405007812589 0.06924894413478738 0.020971455247592252 0.004284723706749968 0.002977289821101514 1:2.4 2:20.0 3:7.0 4:1.2 5:0.9 6:1.9 7:8.1 8:2.0 9:704.0 
-0.3245579693811116 -0.08531528390778934 0.03825451148189918 0.15795769454027947 0.0638735184267587 0.01877326214889774 0.003932455717129121 0.0030460379157196127 1:0.0 2:0.4 3:2.3 4:0.0 5:0.0 6:1.1 7:0.0 8:2.0 9:362.0 
-0.3808794139032917 -0.0857493212041669 0.32688094133908896 0.16717233654720323 0.06378314681411285 0.01880064570496382 0.003909171384566335 0.0030368052879820003 1:1.4 2:0.8 3:0.3 4:0.0 5:0.0 6:0.9 7:0.0 8:2.0 9:286.0 
-0.18280205882694156 -0.08809458404525511 0.03937292359989486 0.16294228450071624 0.06589027656336734 0.019103062689835783 0.003908804407970776 0.0029353352449055102 1:0.0 2:5.3 3:0.0 4:0.0 5:0.0 6:2.7 7:0.0 8:2.0 9:245.0 
-0.19246685291053633 -0.09323572077777909 0.04153659669093385 0.17204867011712843 0.06926337819626693 0.020863731937345698 0.003936892975579587 0.0028543283761956473 1:0.4 2:14.4 3:1.1 4:3.6 5:0.0 6:3.7 7:4.5 8:2.0 9:547.0 
-0.18798101097614667 -0.09099715673914634 0.04052100748570292 0.1683722272152356 0.06840261896910071 0.020319348120872632 0.003904485028942846 0.0030351394253429476 1:0.0 2:6.3 3:0.3 4:0.6 5:0.0 6:3.3 7:0.0 8:2.0 9:661.0 
-0.17253023122816474 -0.08786599223660604 0.037244170929465636 0.1542894985200493 0.06311687823356876 0.018268070255930746 0.003691599278964619 0.002625302883403513 1:0.0 2:7.4 3:0.2 4:0.9 5:0.0 6:0.0 7:2.7 8:2.0 9:410.0 
-0.20495947045314 -0.09287076584950921 0.04155602664743119 0.17177023574434286 0.07363629904007662 0.02070818062301777 0.0039412133210594 0.00306147099163534 1:1.8 2:4.5 3:1.1 4:0.0 5:0.0 6:0.4 7:0.0 8:-1.0 9:771.0 
-0.16483254349851123 -0.07877122771002115 0.03517917477701077 0.14582257012752292 0.06190824623804618 0.01742046356408855 0.0038320187675929818 0.0028425302254673213 1:0.0 2:6.8 3:0.0 4:0.0 5:0.0 6:0.8 7:0.4 8:2.0 9:272.0 
-0.1585106555028044 -0.07694417691384275 0.034454650393912704 0.14204766734536659 0.0574839985150686 0.017120918474137523 0.0039717146636404355 0.002991867791842684 1:0.0 2:6.1 3:0.2 4:0.0 5:0.0 6:2.7 7:0.0 8:2.0 9:534.0 
-0.19588207953173742 -0.09311688901859194 0.04124978141371538 0.17186876885064212 0.069793334646845 0.02041145806574629 0.004453508395526194 0.003036663368369996 1:2.5 2:1.0 3:1.2 4:3.2 5:5.4 6:0.0 7:0.9 8:2.0 9:415.0 
-0.19246002542279367 -0.09276014233794272 0.04162345248808896 0.17168194096049982 0.0696225739474717 0.020627654385016514 0.00390661601608149 0.003010251499978134 1:0.7 2:11.9 3:2.5 4:7.8 5:0.0 6:5.7 7:6.1 8:2.0 9:644.0 
-0.19221106255862302 -0.09286771157593637 0.04142242737276819 0.17168356578470362 0.0689983286724043 0.0205472267153628 0.003903328615433632 0.00303424870498753 1:0.0 2:5.7 3:0.2 4:6.3 5:0.0 6:0.0 7:3.6 8:2.0 9:449.0 
-0.1926492890089594 -0.09337629388259772 0.0415322032043241 0.17244319983920087 0.0693383050704856 0.020865070355227056 0.004416685152318437 0.003057448214608627 1:1.7 2:12.1 3:5.1 4:5.6 5:0.0 6:1.8 7:0.9 8:2.0 9:1106.0 
-0.19209354979909693 -0.09260409311390881 0.041145646588191746 0.17163791185789967 0.06954660357247844 0.020350355188798512 0.003906476991248829 0.003038909471426765 1:0.0 2:10.3 3:2.8 4:0.4 5:0.0 6:3.3 7:2.7 8:2.0 9:558.0 
-0.12200939471164679 -0.05770320577174265 0.05883378601839709 0.10619393339576998 0.04348766064256249 0.012742974715122701 0.003060978405725001 0.0015438727947474362 1:0.0 2:5.6 3:0.0 4:0.0 5:0.0 6:0.7 7:0.0 8:2.0 9:286.0 
-0.19233615043948205 -0.09240220279574007 0.04158280955005467 0.17149217772428343 0.06922024046614744 0.020587170027918895 0.0039088506823652044 0.0030558152264483773 1:0.0 2:14.9 3:0.0 4:0.0 5:1.8 6:4.2 7:0.0 8:-1.0 9:516.0 
-0.1822803756214879 -0.08785830903316848 0.039452754688607566 0.19797337263060644 0.06598568118340303 0.019147537865322563 0.003906250818485201 0.0028106356016169287 1:0.7 2:1.0 3:0.4 4:2.8 5:0.0 6:0.0 7:0.9 8:-1.0 9:204.0 
-0.16055442861016167 -0.07812492770621815 0.03477854937240335 0.14554727363648529 0.05943812273666499 0.01753235383610785 0.003961271312532155 0.002596953027447557 1:0.2 2:4.4 3:1.3 4:2.0 5:0.9 6:0.0 7:4.5 8:-1.0 9:260.0 
-0.14917448410273404 -0.06345354399574502 0.027982505256611834 0.12416483400231598 0.04714622119878002 0.014410083908694304 0.003608024745403615 0.0025568286453576117 1:0.0 2:4.1 3:0.0 4:0.6 5:0.0 6:2.5 7:0.0 8:1.0 9:281.0 
-0.19057103015993038 -0.09204797875504095 0.041168518540063516 0.1764299074469795 0.06898287243252349 0.02009975933637209 0.003888831337341303 0.0030201567587227474 1:1.1 2:4.0 3:1.5 4:1.8 5:0.0 6:0.0 7:0.0 8:-1.0 9:191.0 
-0.1926990093329352 -0.09331110311046786 0.04154320667801781 0.17158418392950087 0.07154976189336584 0.020695260538767725 0.0039099245282909565 0.00304479604623753 1:1.1 2:6.1 3:0.2 4:0.3 5:0.0 6:1.9 7:2.4 8:-1.0 9:545.0 
-0.17211241421884566 -0.07559125255697835 0.03807876010815603 0.16882515337339815 0.06195599998034438 0.01830393524768614 0.003906249775492422 0.0027167654938253794 1:0.3 2:3.3 3:1.3 4:1.5 5:0.0 6:1.1 7:0.0 8:-1.0 9:401.0 
-0.15627453539377378 -0.06929521139081007 0.030903028268788213 0.12756940099019443 0.05163810934497971 0.015335111588449302 0.003257053283026057 0.0019672502549456542 1:0.0 2:3.7 3:1.1 4:1.2 5:0.0 6:1.1 7:0.0 8:1.0 9:277.0 
-0.19290432162467114 -0.09321356237734718 0.04163934332872804 0.1716975394250575 0.07012655807399543 0.020597918530824565 0.004260448335266306 0.0030383384463541956 1:0.7 2:13.0 3:0.3 4:0.0 5:0.0 6:0.0 7:0.0 8:-1.0 9:889.0 
-0.37940378784799333 -0.08401551511219797 0.037454929095142864 0.15599849814835254 0.06305935994235849 0.01839251000461348 0.003903695592020572 0.005485593932791466 1:0.0 2:1.9 3:0.3 4:0.0 5:0.0 6:0.0 7:0.0 8:-1.0 9:239.0 
-0.19224216874822508 -0.09283713883893657 0.04155633474859938 0.17252665691081498 0.06917748315607836 0.020836592542580024 0.004213932438818568 0.0030489854281014472 1:0.8 2:7.5 3:7.1 4:6.2 5:0.0 6:0.9 7:7.2 8:1.0 9:714.0 
-0.1923543973175602 -0.09297202542806543 0.04152761469980015 0.17185674876544765 0.07003323770430997 0.02058469050866013 0.0039062490818573266 0.0028841819086737885 1:0.0 2:6.4 3:1.2 4:2.4 5:0.0 6:1.5 7:7.3 8:1.0 9:403.0 
-0.1690776171024455 -0.0813761383034301 0.03641911961396693 0.15083840198223708 0.060692942777269665 0.018196006298631884 0.003867656970691802 0.0029051908503645845 1:0.0 2:13.3 3:0.2 4:0.3 5:0.0 6:0.3 7:1.8 8:-1.0 9:650.0 
-0.19226906779802821 -0.09319924620974551 0.04160116535629815 0.17207121223926386 0.06956529380909754 0.02082546999016094 0.004225642627650253 0.003038590487878856 1:0.0 2:11.2 3:1.8 4:6.5 5:0.0 6:2.7 7:11.8 8:1.0 9:582.0 
-0.19154758491254248 -0.09276346051075812 0.041332319511483584 0.1707864655180088 0.0697266716684633 0.020204180220918966 0.003906303234212993 0.0030623128977673164 1:0.0 2:12.0 3:2.4 4:2.3 5:1.8 6:2.1 7:0.0 8:1.0 9:702.0 
-0.19231453927799963 -0.09305585408940753 0.04159657462562599 0.1722428200256672 0.06979071960567923 0.020776154908027145 0.0039041141681854796 0.0030350538621680273 1:0.4 2:10.1 3:1.2 4:0.9 5:0.0 6:0.8 7:1.8 8:-1.0 9:583.0 
-0.19233971814708745 -0.0928560213390674 0.04153241608560154 0.17201315899112596 0.069788229316808 0.020976688101005225 0.003980514892444331 0.003048609020070092 1:0.0 2:12.0 3:1.3 4:0.0 5:0.9 6:0.0 7:2.5 8:-1.0 9:965.0 
-0.19235469045159992 -0.09289519852923372 0.041477192343246816 0.17153859846440217 0.06924919925003686 0.020766290309430207 0.00390630602320924 0.002957703197928707 1:1.1 2:9.9 3:0.3 4:0.0 5:0.9 6:0.6 7:0.0 8:-1.0 9:632.0 
-0.1923857903908115 -0.09275793042695452 0.04156546809814654 0.1718059151302347 0.06958629373404251 0.020727575262401265 0.003906584413973004 0.002997482442581856 1:0.0 2:13.4 3:1.6 4:0.3 5:0.0 6:0.7 7:4.5 8:-1.0 9:499.0 
-0.17836196773784824 -0.08700154207315852 0.040091424378805196 0.16089395632643666 0.0652388068955046 0.019332871209448484 0.003807801537382305 0.002799134964140637 1:0.4 2:5.9 3:1.4 4:0.6 5:0.0 6:2.7 7:0.9 8:-1.0 9:452.0 
-0.1806810337372176 -0.08710097914694243 0.039531777459557826 0.16162685275182592 0.06527697042982983 0.0190876204873125 0.003906249858081745 0.003279337635482993 1:0.0 2:9.2 3:0.2 4:3.3 5:0.0 6:0.0 7:0.0 8:1.0 9:676.0 
-0.16679835356707468 -0.08086721895299187 0.035958059825708266 0.14941912988303463 0.059765726782032125 0.018113071730926765 0.003906248517189997 0.0025491254242141492 1:0.0 2:9.7 3:1.4 4:7.5 5:0.0 6:0.0 7:0.7 8:-1.0 9:737.0 
-0.19257246198073596 -0.09317957325849224 0.041591424514342945 0.1720664216782687 0.0700940614720913 0.020676056788255383 0.0046676068826632475 0.003041498444729461 1:0.2 2:21.1 3:0.2 4:0.9 5:0.0 6:0.0 7:3.6 8:1.0 9:900.0 
-0.19226983307299372 -0.09242908324991472 0.0412895121982782 0.17231113022443406 0.06941808943355221 0.020665631496002448 0.0039062500616954465 0.0030367613714627722 1:0.3 2:7.3 3:3.1 4:1.5 5:0.7 6:0.3 7:7.2 8:-1.0 9:793.0 
-0.16375729481204182 -0.08038098502592954 0.03603776749712667 0.14893330486822665 0.05997962057346218 0.0185491748660064 0.003620013807460465 0.0022714547250855532 1:0.2 2:4.7 3:1.2 4:1.3 5:0.9 6:0.0 7:0.9 8:1.0 9:241.0 
-0.19283897484508927 -0.09329764156767362 0.041601795314053946 0.17177174292292408 0.069681526273839 0.02084334916563757 0.004808469832728829 0.0030421738947110184 1:0.0 2:21.7 3:0.7 4:0.6 5:0.0 6:0.0 7:2.7 8:1.0 9:1188.0 
-0.11059563340373818 -0.05369180368421872 0.023707040896691414 0.09891309148697565 0.03974260188881691 0.011505749550076931 0.003062841000785072 0.0022501645402195603 1:0.0 2:9.6 3:0.4 4:0.0 5:0.0 6:0.7 7:1.7 8:-1.0 9:365.0 
-0.18430757590810676 -0.08216634273194487 0.31462645207983175 0.15325357244806284 0.06183769533185557 0.018417125123079407 0.003823538472653487 0.0028332999996698582 1:0.0 2:4.0 3:0.9 4:0.3 5:1.8 6:0.0 7:1.8 8:1.0 9:289.0 
-0.19805417214452803 -0.08854319940530803 0.039651138926665226 0.16426674023093868 0.13278910699688024 0.01969382947170572 0.003802475310049236 0.0028144643771764177 1:0.4 2:7.0 3:1.1 4:0.0 5:0.0 6:1.5 7:3.6 8:1.0 9:417.0 
-0.19232701955447828 -0.09292486053521269 0.04147764164290746 0.17182138152382553 0.0700476000992758 0.020655240566464228 0.0039062591650293275 0.002965359929885336 1:0.0 2:15.5 3:2.5 4:3.1 5:0.0 6:1.8 7:5.3 8:-1.0 9:836.0 
-0.19234599962027715 -0.09296143547636865 0.04158022716744769 0.17172384016338943 0.06976355552599561 0.02079722090370796 0.003909600902009007 0.003036859373394929 1:1.1 2:6.8 3:0.8 4:2.1 5:0.0 6:0.0 7:1.8 8:-1.0 9:667.0 
-0.19264014916259808 -0.09334942192651213 0.041628522307423546 0.1723541275303403 0.07000384816931218 0.020565821268870244 0.0045377589933639564 0.0030367613546247317 1:0.0 2:20.1 3:4.2 4:1.2 5:0.0 6:0.7 7:7.5 8:1.0 9:757.0 
-0.12574744143550093 -0.06216129259479891 0.028236433224084978 0.11583070741072354 0.04649192495761556 0.013983560559561233 0.0029715936417445982 0.0030190032118518895 1:0.9 2:6.1 3:7.1 4:0.6 5:1.8 6:0.7 7:2.7 8:-1.0 9:827.0 
-0.19259469349788627 -0.09299911584841491 0.041639345722551235 0.17245053011098538 0.06973504795058189 0.02094904596473518 0.004004726570181971 0.003040816934287205 1:1.0 2:20.0 3:0.5 4:0.3 5:0.0 6:16.3 7:2.2 8:-1.0 9:1404.0 
-0.19288242496003571 -0.09314947524858191 0.04153083435257021 0.17256569056234033 0.0695789338318673 0.02024415270795188 0.004260909007937463 0.0029832637710827115 1:0.2 2:2.8 3:7.4 4:2.2 5:0.0 6:0.0 7:0.0 8:-1.0 9:138.0 
-0.19449765283136788 -0.09290247214875064 0.04167392941200615 0.1719632570055098 0.06922084389701755 0.020320432625313356 0.0044728952314869175 0.0030547185736657934 1:1.6 2:6.7 3:3.1 4:3.1 5:2.7 6:0.0 7:0.0 8:1.0 9:880.0 
-0.19214081675010442 -0.09284020397765347 0.04156170367786843 0.17162091606038848 0.06991199783248497 0.020208374261789175 0.003906373602707902 0.002969762132443765 1:1.1 2:4.1 3:5.6 4:5.5 5:0.0 6:0.0 7:2.7 8:-1.0 9:270.0 
-0.19263142820149376 -0.09326986492992662 0.04153090320782965 0.17343079749371343 0.0701675651907779 0.020744577192454705 0.004047201581793003 0.003017345281490127 1:1.3 2:0.3 3:9.1 4:2.7 5:0.0 6:0.9 7:0.0 8:-2.0 9:253.0 
-0.1706543018067181 -0.0822612910428968 0.1206070102758155 0.15200840783315084 0.06149815241884712 0.018073655742371075 0.0036604801176905455 0.002598676611019035 1:0.0 2:4.6 3:0.0 4:1.2 5:0.0 6:0.0 7:3.6 8:-1.0 9:351.0 
-0.15962114737435074 -0.27118013473628416 0.035158116064326075 0.14456602412615277 0.05871057174629424 0.01765935571344751 0.0035915508726925604 0.0030358020048728007 1:0.3 2:4.4 3:2.0 4:0.0 5:1.8 6:1.7 7:0.0 8:-1.0 9:405.0 
-0.1991523088074436 -0.09322910152418346 0.04158573160504031 0.1716036402422803 0.06966832801477879 0.020220287968568118 0.0044523529054937136 0.003037075550377022 1:0.2 2:13.6 3:2.0 4:0.6 5:0.0 6:1.8 7:2.1 8:1.0 9:873.0 
-0.1922770694236512 -0.09329310954626413 0.041646430606043006 0.17205540194841373 0.06972544729776609 0.02080224485741039 0.0039742014739437975 0.003036674135128259 1:0.0 2:13.6 3:3.0 4:0.0 5:0.0 6:3.4 7:1.8 8:-1.0 9:397.0 
-0.16668681646869205 -0.08028738314470119 0.03651314011640816 0.14872032850717348 0.060445536899227215 0.01832595468845675 0.003906251482785868 0.0030562779009176144 1:1.5 2:10.7 3:3.4 4:8.3 5:0.9 6:0.0 7:0.9 8:1.0 9:739.0 
-0.30521665210008864 -0.0722688936018483 0.03240245417263094 0.13380324465745513 0.05472764417229253 0.01618691520951593 0.003873134686255068 0.002418989318851039 1:0.0 2:3.0 3:0.0 4:0.0 5:0.9 6:0.0 7:0.9 8:-1.0 9:307.0 
-0.1583322253812064 -0.0776578782201422 0.03430684791154735 0.14297666986817026 0.0630575635371442 0.01711701883375244 0.0035520516647331024 0.0023462695654096755 1:0.0 2:4.6 3:1.8 4:1.6 5:0.0 6:1.2 7:1.8 8:-1.0 9:482.0 
-0.19230974933889045 -0.09255367740913345 0.04162741730713504 0.17249681054652072 0.07004312781599698 0.020244213689802226 0.004011644021910232 0.0030408235595174027 1:0.0 2:22.9 3:1.5 4:1.3 5:0.0 6:0.0 7:19.0 8:-1.0 9:883.0 
-0.19233866225977148 -0.09275560854016146 0.041473066791909374 0.17221851510866115 0.06954385990630546 0.02108586733759138 0.003906250056245655 0.0030367613672301103 1:0.0 2:10.4 3:2.7 4:4.2 5:0.9 6:4.2 7:0.0 8:1.0 9:793.0 
-0.19289368218731262 -0.09296317890909495 0.0419684525720086 0.1718458345954788 0.06967611513148525 0.02066432517921457 0.004134652120570792 0.0030128338206727445 1:0.0 2:6.1 3:1.4 4:0.4 5:0.0 6:0.0 7:8.1 8:-1.0 9:994.0 
-0.19310338869328397 -0.09287128289826635 0.041530798958762494 0.1724680639209904 0.06967485374960258 0.020274435720450568 0.003911472644552487 0.002986037458683255 1:0.0 2:1.2 3:5.7 4:3.6 5:0.9 6:0.0 7:0.0 8:-2.0 9:423.0 
-0.12950971280276313 -0.06308273970316756 0.02832529795993971 0.1164348577291497 0.0479742680981311 0.014184267707970377 0.0030006951086054556 0.0023603483349399212 1:0.0 2:7.5 3:1.1 4:0.3 5:0.0 6:2.7 7:0.0 8:1.0 9:368.0 
-0.16281268454816927 -0.07852925755698054 0.035719439147438636 0.1503220372169759 0.0584714343288959 0.017957985926141617 0.00390798364727889 0.003037510811101176 1:0.0 2:2.6 3:0.4 4:0.6 5:0.0 6:0.0 7:0.0 8:-1.0 9:183.0 
-0.07722441258433306 -0.05203496832029453 0.022999100350698354 0.09690732525638149 0.038873553586784626 0.011177920795564622 0.0020314891895110154 0.0014297752139747731 1:0.0 2:2.9 3:0.2 4:0.3 5:1.8 6:0.0 7:1.8 8:1.0 9:312.0 
-0.12879571193771244 -0.05794904302206 0.02623544740701028 0.10693170673820956 0.043312511477010374 0.012994797175544961 0.002838356351492488 0.0010694671931089084 1:1.6 2:5.5 3:5.5 4:0.6 5:0.9 6:1.6 7:1.7 8:-1.0 9:827.0 
-0.2401246673377711 -0.09071779453075213 0.04076089298522029 0.18029937331189455 0.08861026191372914 0.019641524691325078 0.0038382985260561513 0.0029803681197626553 1:1.0 2:5.1 3:1.1 4:1.6 5:0.0 6:0.3 7:0.9 8:-1.0 9:396.0 
-0.13163009377752377 -0.06816153258397206 0.23992396294166973 0.12565000647949204 0.05608893268671722 0.015625641501017962 0.0032139531881437257 0.0023707098765129997 1:0.4 2:2.8 3:4.1 4:2.5 5:0.0 6:0.0 7:3.6 8:2.0 9:329.0 
-0.19252193419310976 -0.09283733925530069 0.04162980567452306 0.17184551943465726 0.06998875449905018 0.02081259819119835 0.003934817347734073 0.0030379845861115973 1:0.0 2:21.4 3:0.0 4:0.0 5:0.0 6:0.0 7:5.4 8:1.0 9:508.0 
-0.19217475536952605 -0.09319932461445507 0.04155920280795444 0.17232315118262936 0.07008598932025245 0.020711443718945788 0.004032597774395574 0.0030408847430499764 1:0.0 2:20.3 3:2.7 4:3.4 5:2.7 6:0.0 7:11.7 8:-1.0 9:1412.0 
-0.20792839062307744 -0.08981431355171429 0.041942386536744286 0.16561002067321282 0.06723465249080013 0.019476826266003888 0.003829592734379217 0.002840204389104095 1:0.0 2:1.9 3:0.0 4:0.4 5:0.8 6:3.0 7:0.0 8:-1.0 9:473.0 
-0.1923970693379352 -0.09291573943701775 0.04159770015125491 0.17223322175578598 0.06987714460168337 0.020827003963989163 0.004049430772320095 0.0029487461149273475 1:0.6 2:13.2 3:2.5 4:0.3 5:1.8 6:1.2 7:5.4 8:-1.0 9:719.0 
-0.19253437724533956 -0.09312521990389855 0.04152593503965091 0.17201415837228423 0.07008334964871332 0.020192474498423985 0.004037568179026896 0.0030409893368930074 1:2.2 2:29.5 3:4.0 4:1.4 5:0.0 6:1.2 7:7.0 8:-1.0 9:1099.0 
-0.19149198851571025 -0.09261317862843294 0.041618152260869234 0.1707235967144849 0.06929752307651178 0.02012755670597871 0.003890843226863394 0.003021574286471762 1:0.0 2:7.7 3:0.0 4:0.0 5:0.9 6:0.0 7:0.4 8:1.0 9:440.0 
-0.18708043390995133 -0.09012747694175531 0.04059007245861124 0.16701486636245452 0.06779482551245097 0.02025737460543555 0.003848607272848137 0.002874317418732064 1:0.4 2:6.3 3:1.5 4:2.9 5:0.0 6:2.1 7:2.7 8:-1.0 9:658.0 
-0.26555270619095545 -0.08711853290832039 0.04485294514988511 0.1622941781074785 0.06592477781091177 0.01904634378116904 0.003906253276183451 0.003036763915068691 1:0.0 2:2.8 3:1.3 4:1.4 5:0.0 6:0.0 7:0.0 8:-1.0 9:477.0 
-0.16641232633460062 -0.07795726749216725 0.026007674083776577 0.10664928735119464 0.04279109613763016 0.013111996981721885 0.002528857846673338 0.0027642204220010846 1:0.0 2:2.7 3:1.4 4:0.0 5:0.0 6:0.0 7:0.9 8:-1.0 9:409.0 
-0.1467101796463373 -0.07415766326156237 0.033559146146616925 0.13528968060601468 0.05587533098962999 0.016813458286584038 0.00390039663097963 0.002528785325986549 1:0.0 2:3.6 3:0.0 4:0.0 5:0.0 6:0.3 7:0.9 8:-1.0 9:176.0 
-0.18312007444851386 -0.0878644588565536 0.039575402435173324 0.16367095662782116 0.06594721959938038 0.01967696371111967 0.0039062451061170605 0.0030383833107875957 1:0.6 2:8.0 3:2.9 4:4.0 5:1.8 6:1.4 7:0.0 8:-1.0 9:828.0 
-0.19230310429233993 -0.09328274528842595 0.04208250270439723 0.17223953165579636 0.06968820869873849 0.020564447028643684 0.00405741416980826 0.003279464331175652 1:0.0 2:6.0 3:0.0 4:2.4 5:1.8 6:24.1 7:0.0 8:1.0 9:749.0 
-0.19249040569019893 -0.09313185932865387 0.04155692772139021 0.17138017766647434 0.06919569295228367 0.02076724818383804 0.0039043713237109654 0.003035184289713 1:0.2 2:3.9 3:4.1 4:0.0 5:0.0 6:0.0 7:5.4 8:-1.0 9:438.0 
-0.18974400976642586 -0.08346405477858171 0.031192296091324956 0.15707321417203235 0.06226313832734515 0.01845545985189092 0.0039046832702099967 0.003031635304418412 1:0.0 2:4.4 3:1.8 4:3.6 5:0.0 6:0.0 7:1.8 8:-1.0 9:348.0 
-0.1893167883058522 -0.0912603125712923 0.040848650872083114 0.20315714598275503 0.06872914262433022 0.020398647597834853 0.003871286691151443 0.0026990534171847935 1:0.0 2:1.9 3:0.0 4:0.6 5:0.0 6:0.0 7:0.0 8:1.0 9:249.0 
-0.19267385221176248 -0.09333779490173716 0.04166817824917135 0.17177487220233473 0.06973504773879147 0.020803471166243166 0.004568045093581075 0.003040321075685859 1:0.2 2:10.4 3:2.1 4:0.0 5:0.0 6:12.9 7:5.4 8:-1.0 9:605.0 
-0.06964133300046255 -0.03389627012667701 0.015473879813306668 0.06247340155192581 0.02594940809527546 0.008019505324558696 9.199108267966549E-4 6.442772334564473E-4 1:0.0 2:9.8 3:0.6 4:0.0 5:0.0 6:0.9 7:0.0 8:1.0 9:364.0 
-0.19261702155889054 -0.0930553597357553 0.04166715922477937 0.17158326661646067 0.06924894581732483 0.020564297345503357 0.004060271412051727 0.003279459680555652 1:0.3 2:28.8 3:5.8 4:1.3 5:5.2 6:1.4 7:5.4 8:-1.0 9:1040.0 
-0.196110790530876 -0.0926963677831511 0.04136337852443173 0.1707628759594455 0.06935539272619468 0.020148020071383575 0.003906285834513034 0.0029897569288339088 1:0.4 2:6.2 3:2.3 4:2.8 5:0.0 6:2.5 7:5.4 8:-1.0 9:374.0 
-0.1829864812922491 -0.08858263537522695 0.039745532093580886 0.16405263129953812 0.06664161594148546 0.019788752281352795 0.003850743142333246 0.002881844874763617 1:0.0 2:7.2 3:1.4 4:0.3 5:0.0 6:0.0 7:5.4 8:-1.0 9:309.0 
-0.19247847055461265 -0.09326465788398286 0.04161019590744375 0.1720630287871815 0.06990091009330646 0.020776524884798066 0.00460982962224199 0.003040757972679664 1:1.7 2:3.2 3:3.7 4:9.2 5:0.0 6:0.0 7:5.2 8:-1.0 9:698.0 
-0.17423164087788884 -0.08408890564980315 0.036626351625465514 0.1557452207316796 0.06266748623920385 0.01851701281941065 0.0037547552333894174 0.0027719497253653747 1:0.2 2:8.5 3:0.2 4:0.3 5:0.0 6:0.0 7:0.0 8:-1.0 9:349.0 
-0.13793150744647203 -0.067077949934783 0.030603739832862957 0.12333044008066602 0.04960694710346677 0.015027272184779339 0.0032078654602452072 0.002732070569404943 1:0.0 2:9.6 3:0.7 4:0.3 5:0.0 6:1.7 7:0.0 8:-1.0 9:280.0 
-0.25005375623072557 -0.08309636279449854 0.0360681697030899 0.15394694444689772 0.06213363305162761 0.01820530086261013 0.003677847879429208 0.0026976816884659582 1:0.0 2:5.2 3:0.0 4:3.5 5:0.9 6:0.0 7:2.7 8:1.0 9:295.0 
-0.17956349789783382 -0.08636423631642881 0.038747680087215464 0.16070446251045523 0.06486121335698647 0.01924059795808493 0.0037652983002658957 0.002786016085105869 1:0.0 2:7.9 3:1.5 4:1.3 5:0.9 6:1.1 7:0.0 8:1.0 9:516.0 
-0.18982517051819892 -0.09149589667504898 0.041176503485083185 0.16942067066712052 0.06876420890041074 0.020536837427693362 0.0038776826557191785 0.003010149731879741 1:0.0 2:15.2 3:0.0 4:0.0 5:0.0 6:0.0 7:0.8 8:-1.0 9:506.0 
-0.19252718958958542 -0.0933325556902811 0.0415962041211259 0.1722180981151617 0.07007145528311123 0.02080307681688559 0.004751521572295747 0.0029396408196336044 1:2.3 2:20.8 3:4.3 4:0.0 5:3.6 6:0.8 7:4.9 8:1.0 9:745.0 
-0.19282799649478105 -0.09318376586437882 0.042097508649230286 0.1721715094820815 0.06936508584437817 0.02096382641530864 0.003906193632223652 0.0030365404887336966 1:0.7 2:6.9 3:4.8 4:3.0 5:0.0 6:0.0 7:0.4 8:-1.0 9:639.0 
-0.19209809405819173 -0.09327131334607935 0.041844729121159774 0.17205204129614 0.06926859537510244 0.02067512330703778 0.003920233892368307 0.0030369822471112418 1:0.2 2:4.3 3:0.5 4:1.2 5:0.0 6:9.6 7:1.8 8:-1.0 9:507.0 
-0.14831994246655644 -0.06638024629126538 0.0261587585117998 0.124564315682035 0.05015551002614077 0.014910875385596434 0.003397729594271204 0.002234410202545112 1:1.0 2:6.9 3:1.8 4:0.0 5:0.0 6:0.0 7:0.0 8:-1.0 9:284.0 
-0.19240181506435716 -0.09313661320378101 0.04153334226283617 0.17209702020318135 0.06996274633269034 0.020785154236172082 0.003912347283913566 0.003037720730269533 1:1.1 2:5.1 3:6.1 4:5.6 5:0.0 6:0.0 7:0.0 8:-1.0 9:515.0 
-0.13570007822847624 -0.06657622404406233 0.029852240964338195 0.12312237296365275 0.051942109584297624 0.0150940505289196 0.0032026703777579546 0.0018513744665146215 1:0.0 2:6.2 3:0.3 4:0.0 5:1.9 6:1.9 7:0.0 8:1.0 9:276.0 
-0.1744553948703506 -0.0843359157402293 0.03761937266805526 0.15605353867886584 0.06356196601753722 0.01857439829208142 0.0037098049153674872 0.0027280893487525715 1:2.3 2:10.1 3:2.2 4:0.6 5:0.0 6:0.3 7:3.0 8:-1.0 9:706.0 
-0.19177126463330746 -0.09265700863923838 0.04199469204587081 0.1716872797269398 0.06974342993421834 0.02077415756354678 0.0039062484974409463 0.003037270554053173 1:0.0 2:2.9 3:0.9 4:8.8 5:0.0 6:0.0 7:0.9 8:-1.0 9:208.0 
-0.1926492881362527 -0.09323945703993064 0.041667523351309355 0.17188144073983125 0.07004312752409181 0.020822308082111607 0.00453547967972906 0.003040558791026959 1:0.0 2:14.8 3:1.4 4:0.9 5:0.9 6:2.7 7:0.8 8:-1.0 9:687.0 
-0.1666225963605072 -0.08044101517651725 0.035986044783343926 0.14960563681955094 0.06032516947242356 0.018235161048066724 0.003901258376615868 0.022508143084191648 1:0.0 2:1.8 3:2.0 4:0.0 5:2.7 6:1.0 7:0.4 8:-2.0 9:227.0 
-0.19330481475854888 -0.09286313066867613 0.041551677205371174 0.17170366486120658 0.06927044806120802 0.020237098760030874 0.003906208307305338 0.00303673046202815 1:0.0 2:6.3 3:0.3 4:0.0 5:3.6 6:2.5 7:0.0 8:-1.0 9:525.0 
-0.19241814693732595 -0.09320853167684684 0.04166628119842086 0.1715874080036428 0.06975090938158285 0.020475778148476398 0.004061642633048257 0.002896861473713208 1:0.8 2:12.2 3:1.5 4:0.0 5:0.0 6:14.3 7:0.0 8:1.0 9:1275.0 
-0.19234045804410416 -0.09333235817271551 0.04155164270176914 0.1723981760445082 0.0701237624983071 0.020825429563242265 0.004025576339397041 0.003056659423368524 1:0.0 2:2.9 3:0.2 4:4.7 5:0.0 6:0.0 7:1.8 8:-1.0 9:600.0 
-0.1891102759453891 -0.09112621625847311 0.04064613459059335 0.16770351183175203 0.06831227169379533 0.020351355476747657 0.0039062206449245957 0.003036738256797263 1:0.3 2:4.2 3:0.8 4:3.4 5:1.8 6:0.0 7:1.8 8:-1.0 9:505.0 
-0.17593806982255422 -0.0852988598112897 0.0379322493864962 0.15746108188369984 0.06349372175296997 0.01883272187841893 0.0039061967607962917 0.0030363426586108577 1:0.9 2:6.9 3:1.9 4:0.0 5:0.0 6:0.0 7:0.9 8:-1.0 9:708.0 
-0.1906077808952868 -0.09214415698088169 0.04119049704697117 0.16994180315039245 0.06885728041817407 0.020591169019688767 0.0039061773946396094 0.003279292121749988 1:0.0 2:7.2 3:0.2 4:1.5 5:0.9 6:0.6 7:5.4 8:-2.0 9:425.0 
-0.19245623713703847 -0.09271433783729488 0.04159378952795684 0.17182767272537586 0.06966831778180935 0.020705367537351027 0.003905840589047424 0.003033201660381013 1:0.0 2:17.4 3:1.1 4:4.0 5:0.0 6:2.4 7:7.1 8:1.0 9:645.0 
-0.1920540887325224 -0.09332092593817615 0.041634637325630885 0.17198398664785763 0.0698190478414195 0.020960614696923285 0.003906250220993696 0.0030355381512340296 1:0.0 2:21.0 3:3.4 4:2.8 5:0.0 6:0.6 7:4.4 8:-1.0 9:729.0 
-0.11746634237991044 -0.0567208461331995 0.025484641313898215 0.10535865782868287 0.04201638281026743 0.012721617540352448 0.0028687463297875637 0.001303502727240946 1:0.0 2:8.7 3:0.6 4:0.0 5:0.9 6:2.4 7:2.7 8:-1.0 9:368.0 
-0.18275930182954508 -0.0885245334727619 0.03940802145440456 0.26976276721948683 0.06579029781654261 0.019714638609956002 0.003800877339384723 0.003036011920470292 1:0.2 2:2.5 3:0.6 4:0.0 5:0.0 6:0.0 7:0.7 8:-1.0 9:200.0 
-0.19260211907531677 -0.09255941268580498 0.04157175550662201 0.17233820894720975 0.07009322472377384 0.02073541008948776 0.0039062497790304388 0.0029753659453988224 1:0.0 2:14.8 3:0.4 4:0.5 5:1.8 6:0.0 7:0.9 8:-1.0 9:730.0 
-0.19212614008048268 -0.09329644606246257 0.0415308362967271 0.1719341593228143 0.06980274095341299 0.02083167598257414 0.003950800358112183 0.0030296428978118795 1:0.0 2:3.0 3:4.2 4:0.6 5:3.6 6:1.2 7:0.0 8:-1.0 9:716.0 
-0.19938591945635842 -0.06832547615419815 0.048405241566284396 0.1258260568188948 0.05768020769022625 0.014992473573039188 0.003144893117337344 0.0018254063755196448 1:0.6 2:2.9 3:1.8 4:0.9 5:0.0 6:0.3 7:3.6 8:1.0 9:329.0 
-0.1782191900957958 -0.0856029880254805 0.03842824298993858 0.15878228515321569 0.06377254222743423 0.01891686676330001 0.0039062467238165487 0.00303675882122178 1:0.7 2:7.2 3:0.4 4:0.0 5:0.0 6:0.8 7:0.9 8:-1.0 9:485.0 
-0.5830739605040314 -0.0899931254273845 0.038224955137588036 0.15896888172075757 0.06444761515668873 0.019116265050796777 0.003908071750839791 0.002751312967837205 1:0.0 2:1.4 3:0.0 4:0.0 5:0.0 6:0.0 7:0.9 8:-1.0 9:450.0 
-0.1925362537977524 -0.09317439178831599 0.041639979951181405 0.17199718925701646 0.07014662297175656 0.020324514814860084 0.004434857337760487 0.0032794570084141994 1:0.2 2:3.2 3:2.0 4:9.3 5:0.0 6:1.4 7:2.7 8:-1.0 9:576.0 
-0.16311308203091857 -0.07838217806446217 0.03534103370019365 0.14595576548598616 0.05870525337759706 0.01741680514546546 0.003547958277747787 0.002392679617599369 1:0.0 2:4.6 3:0.7 4:0.0 5:0.0 6:2.1 7:1.8 8:1.0 9:531.0 
-0.19156947564684865 -0.0925455285180879 0.04123105624996187 0.17058628406892334 0.06892520790106721 0.020499222661942762 0.0039062049678036644 0.003036912467309194 1:0.4 2:8.1 3:3.0 4:2.4 5:0.0 6:0.0 7:3.4 8:-1.0 9:444.0 
-0.1923178044963274 -0.09313737927446264 0.04165868428973729 0.1720510112254402 0.06974534954791939 0.02082045092291912 0.003908650349899068 0.0032793377895475873 1:0.0 2:1.8 3:1.8 4:0.0 5:0.0 6:1.2 7:0.0 8:-2.0 9:587.0 
-0.1742079211702306 -0.08400000123543239 0.03771370839677206 0.15584953538656665 0.062922290995297 0.018708422982944388 0.003912103369029023 0.21810450103507784 1:0.0 2:5.0 3:0.2 4:0.3 5:0.0 6:0.0 7:2.7 8:-1.0 9:232.0 
-0.40600622919081025 -0.04488674831257211 0.019782988851565403 0.08336818635164045 0.03340780591240694 0.009928092422632984 0.0015864649155869185 0.0012770999897986977 1:0.0 2:2.5 3:0.3 4:1.0 5:1.8 6:0.0 7:0.9 8:-1.0 9:268.0 
-0.19260179102618086 -0.09286053066461641 0.04167113589290955 0.17191731376477337 0.06985165791666703 0.02082730294507046 0.004102698356005241 0.0029992282174788887 1:1.4 2:28.2 3:2.1 4:0.7 5:1.8 6:0.0 7:0.4 8:-1.0 9:798.0 
-0.17576147959721955 -0.08472998985597222 0.03758718078284562 0.1566347079245645 0.06315279403547436 0.018548238198185723 0.003814488775248037 0.002822997384259618 1:0.4 2:9.6 3:1.0 4:0.6 5:0.0 6:0.0 7:2.7 8:-1.0 9:314.0 
-0.19778370282749053 -0.09271732386256609 0.04151099382073348 0.17221353371057513 0.06966116843499448 0.02078888388477612 0.003968136055905869 0.0030384086742876737 1:0.0 2:0.7 3:2.0 4:0.0 5:0.0 6:0.0 7:0.0 8:-1.0 9:383.0 
-0.18413683523166757 -0.0889370011541814 0.03987791333975276 0.1646402106823705 0.06696663176908496 0.019818540235848676 0.0039063501106673774 0.002885813243858089 1:0.4 2:11.5 3:3.3 4:0.3 5:1.8 6:0.9 7:3.6 8:-1.0 9:646.0 
-0.2979531376342539 -0.07720105806419036 0.03473778658222887 0.1430623247899736 0.05785301827332194 0.0173831576141511 0.003551575379303451 0.0023735632448417554 1:0.0 2:3.1 3:1.5 4:0.0 5:0.0 6:0.6 7:0.0 8:-1.0 9:360.0 
-0.1669780812118214 -0.08062142012212592 0.03595609209685452 0.2027907543277276 0.05968174196709411 0.018115641975425756 0.003598562132247185 0.0024755387106044635 1:0.0 2:1.2 3:1.5 4:0.9 5:0.0 6:1.2 7:0.0 8:1.0 9:178.0 
-0.20292781862930406 -0.0911906459685542 0.040675510666499826 0.16804651448578056 0.0684966453941338 0.020349295000947287 0.003861700008159552 0.0029941202869164796 1:1.2 2:4.5 3:2.0 4:0.0 5:0.0 6:0.4 7:0.9 8:-1.0 9:509.0 
-0.32103619743742934 -0.14998940258734653 0.03219183864287939 0.13281044137561632 0.07005937073486344 0.016101822551297273 0.003662979102375119 0.0025979676805589214 1:0.7 2:3.0 3:0.0 4:0.0 5:0.9 6:2.6 7:0.0 8:1.0 9:316.0 
-0.1929406339631517 -0.09306065332592303 0.04190654023005626 0.18357704087268248 0.06926613824952832 0.020284646905611395 0.004416115499224196 0.0030363211431395642 1:0.0 2:3.9 3:1.7 4:6.6 5:0.0 6:0.0 7:1.8 8:1.0 9:219.0 
-0.1622252887528401 -0.07697245858397178 0.03553615719508645 0.1448677319946669 0.08410937524731343 0.017430568769316652 0.003906219981323479 0.0029769115481908526 1:0.2 2:6.5 3:0.0 4:0.0 5:0.0 6:0.0 7:1.8 8:-1.0 9:413.0 
-0.13828238871846782 -0.06408306498416538 0.029739520635990738 0.1195367947912736 0.04833904404700434 0.014336874196721638 0.003041714398321016 0.002090131672378037 1:0.5 2:6.9 3:0.3 4:0.0 5:0.9 6:0.7 7:1.3 8:-1.0 9:461.0 
-0.19094828180051776 -0.09239899121409595 0.04130152532930667 0.17012157318357118 0.06899682762836312 0.020544411731990946 0.003906248457039357 0.003041773302214945 1:0.7 2:13.7 3:4.7 4:0.0 5:3.6 6:0.0 7:4.3 8:-1.0 9:1000.0 
-0.18077391778376395 -0.08697410016674467 0.04589833956811941 0.16156657055219076 0.07237283920938914 0.019074377189689184 0.0038969487811649772 0.003027719542574414 1:0.0 2:2.7 3:0.0 4:0.0 5:1.8 6:1.8 7:4.5 8:1.0 9:482.0 
-0.192474663872372 -0.09303879438907214 0.0420380645130769 0.17199778453592607 0.06968468823834267 0.020821781700082954 0.004152019882309463 0.003047455459030568 1:0.8 2:4.8 3:1.2 4:11.6 5:0.0 6:2.4 7:0.9 8:-1.0 9:630.0 
-0.20680205759383502 -0.08029878425252635 0.036403969864867554 0.1483679760838069 0.0600203596213878 0.018142713918204753 0.003906279355075439 0.0030367844793163495 1:0.0 2:3.4 3:0.9 4:1.0 5:2.7 6:0.8 7:3.6 8:-1.0 9:496.0 
-0.1798956092391532 -0.08722272942880206 0.03883785950807245 0.1606166420775062 0.06505272438925508 0.018875550570466842 0.003903649314181544 0.003032024291338753 1:0.2 2:10.0 3:3.6 4:0.9 5:1.8 6:0.0 7:0.0 8:-2.0 9:518.0 
-0.19673258224272294 -0.06091994268080059 0.027355374661279158 0.11222905509607972 0.04493345041821373 0.01359578970694155 0.003250662302255975 0.0017543029623719388 1:0.0 2:2.7 3:0.0 4:0.0 5:1.8 6:0.0 7:2.7 8:-1.0 9:267.0 
-0.11759895596115216 -0.05725879789014987 0.02549680414528134 0.10509631182950327 0.04254838278254047 0.012385394424816454 0.002907524568822928 0.009842164662455966 1:0.0 2:4.3 3:2.0 4:0.9 5:0.0 6:1.2 7:0.0 8:-1.0 9:227.0 
-0.1235386185613071 -0.06055451723033747 0.026645211664761394 0.11239913441582225 0.04541301836840632 0.015624689549751469 0.003906210894114238 0.0030326991810465387 1:0.0 2:5.0 3:0.0 4:0.0 5:0.0 6:0.0 7:0.0 8:2.0 9:374.0 
-0.1907862482342496 -0.08914004703507206 0.03969577856498206 0.16543397523792375 0.0667436397922645 0.019490292311826085 0.0038443650867443836 0.0028746957521288974 1:0.0 2:4.6 3:0.4 4:0.9 5:2.3 6:0.0 7:0.0 8:-2.0 9:377.0 
-0.19257638956791173 -0.09321804411841106 0.041648297718344995 0.17188310153855496 0.07008959586262536 0.020928220978631895 0.004192487210907592 0.00304211978392821 1:0.2 2:21.7 3:1.8 4:0.9 5:0.9 6:0.9 7:3.1 8:2.0 9:1302.0 
-0.1936409568397543 -0.09279558510141889 0.04159333420111211 0.1722390879277778 0.06925894726241495 0.020737708250806022 0.003906291692935945 0.0030367922740700856 1:0.0 2:3.9 3:0.0 4:0.9 5:2.7 6:0.0 7:7.0 8:-1.0 9:524.0 
-0.1923535092330107 -0.09303550155192986 0.04166956022381735 0.17225255533480288 0.06934294696435789 0.020318321667863792 0.003935574563521376 0.003046530864774244 1:1.5 2:12.8 3:0.8 4:7.4 5:0.0 6:0.0 7:0.0 8:1.0 9:425.0 
-0.12034420441856569 -0.07272921410762706 0.03241005095241711 0.1345425173416507 0.05425778032033768 0.01631731109682044 0.0033797325659529753 0.0021937474351474417 1:0.0 2:5.5 3:0.7 4:1.9 5:0.0 6:0.0 7:0.0 8:-1.0 9:306.0 
-0.19245670901067252 -0.09319452640630971 0.04148526983459333 0.17171662644770552 0.06949474240138354 0.02081616758817804 0.0039062537250870956 0.0030365619677836797 1:0.7 2:8.3 3:0.8 4:2.9 5:1.8 6:0.0 7:0.0 8:-1.0 9:613.0 
-0.37482545923986965 -0.08872136917597273 0.03989018576979822 0.16437431819777323 0.08439772403723705 0.020079422562283403 0.0038407844413361203 0.002835555872748141 1:0.0 2:1.6 3:0.0 4:0.0 5:0.0 6:3.0 7:0.0 8:1.0 9:264.0 
-0.054743873962681426 -0.025247548904112294 0.011403984253020381 0.04580832739323645 0.01827240542194432 0.0034087610128524237 0.0 0.0 1:0.0 2:5.0 3:0.0 4:0.0 5:0.0 6:0.0 7:0.0 8:1.0 9:374.0 
-0.19247265257031593 -0.0928504580626342 0.041535836671120374 0.17206168610892658 0.06987822244580633 0.02023862720864844 0.004010024689911573 0.003038468873869146 1:0.2 2:19.5 3:0.7 4:0.9 5:1.8 6:0.9 7:0.9 8:-1.0 9:579.0 
-0.12279146696590745 -0.0725370878531598 0.03262501778889155 0.1343932407180093 0.05414558492784729 0.016511328946763326 0.003377642662480751 0.0022037230453476465 1:0.0 2:5.2 3:1.2 4:0.9 5:0.0 6:0.0 7:0.0 8:1.0 9:268.0 
-0.1576231351187496 -0.08582325012745703 0.03895906523387484 0.1595866646083929 0.0641584031570438 0.018698114159457713 0.0037522344878505587 0.0027127196250758545 1:0.0 2:3.1 3:0.5 4:0.0 5:0.0 6:0.0 7:5.2 8:-1.0 9:452.0 
-0.18866080593827833 -0.09092776056358404 0.04072315838587931 0.16848977004536908 0.06817329860655547 0.02059979865147033 0.0039061501478840233 0.0030364471866160536 1:0.0 2:11.4 3:0.0 4:1.0 5:0.0 6:0.0 7:0.0 8:-1.0 9:270.0 
-0.15645234230987187 -0.080541473776572 0.03718253634918417 0.14881434654974013 0.06022816743328424 0.01809067767811385 0.003896186321260714 0.00302108132324852 1:0.9 2:6.8 3:0.3 4:0.9 5:0.0 6:0.0 7:0.0 8:1.0 9:359.0 
-0.18120700641967447 -0.08721047566682393 0.04548750354527059 0.1619503715442712 0.06516732566078717 0.01897005515516629 0.003907816729790017 0.0030371800774831037 1:2.2 2:8.4 3:0.7 4:2.0 5:0.0 6:0.9 7:0.0 8:2.0 9:352.0 
-0.19216233138902583 -0.09242589543477642 0.04147247305839144 0.1712656872288475 0.0691122571124426 0.020271025679600124 0.003900152715845151 0.003025824654617315 1:0.7 2:7.6 3:0.0 4:0.9 5:0.0 6:1.0 7:0.0 8:1.0 9:207.0 
-0.19199252351097346 -0.09226699298301633 0.041322223503168165 0.17156861055503833 0.06947926255229755 0.02053982956256052 0.0039062503023757555 0.00295079795203107 1:0.0 2:8.6 3:0.7 4:1.0 5:0.0 6:0.0 7:1.1 8:1.0 9:214.0 
-0.19307201985677386 -0.09283690786922794 0.04154102693628381 0.1725034924035873 0.06929329111388005 0.020827222043190485 0.003988962422369957 0.003036921647569968 1:0.4 2:7.3 3:0.7 4:0.9 5:0.0 6:0.0 7:0.0 8:2.0 9:132.0 
-0.19057597904812307 -0.09241408198888967 0.04161485025018096 0.17682399957120892 0.06868671924324171 0.020017492080759702 0.003907020873557776 0.003037361185514533 1:0.7 2:7.9 3:0.0 4:1.3 5:0.0 6:0.0 7:0.9 8:2.0 9:195.0 
-0.13162360639870652 -0.0649889549835625 0.029407363226991893 0.11916287301752487 0.04813560381988441 0.014524634843504025 0.0031017693835487066 0.002144714402336323 1:0.0 2:7.2 3:0.0 4:0.0 5:0.0 6:0.0 7:0.0 8:-1.0 9:459.0 
-0.5304534853068663 -0.08604284945588123 0.03848606264365845 0.15929133211526514 0.0641879951802587 0.018734609390457846 0.0037508627958859897 0.0027781684321349642 1:0.0 2:2.8 3:0.3 4:1.8 5:1.8 6:0.0 7:0.0 8:1.0 9:429.0 
-0.1613516603123598 -0.07719970759927258 0.034655023047714284 0.14275556146871354 0.058455276448270505 0.0174035918925873 0.003527776298240748 0.0023289913898892345 1:0.0 2:6.1 3:0.0 4:0.0 5:0.0 6:0.0 7:0.0 8:-1.0 9:181.0 
-0.14162856704017993 -0.07125859465017859 0.03192126686110397 0.13397068040206084 0.0534777903935366 0.01613570199133843 0.003680404506936481 0.00203000607105039 1:0.7 2:5.2 3:0.5 4:1.0 5:0.0 6:0.0 7:0.0 8:-2.0 9:260.0 
-0.1899782274935371 -0.09195127847753665 0.041272575947149774 0.1701633537288324 0.07438169632699224 0.02063094306802937 0.0039062756856424585 0.0032793549560671265 1:1.4 2:6.6 3:0.0 4:2.8 5:1.8 6:5.5 7:0.0 8:2.0 9:267.0 
-0.18300039808734608 -0.08836261679949445 0.039464067819952715 0.16409616351942474 0.06588222413206676 0.019661217512706466 0.003909890663060888 0.002850446607377599 1:0.7 2:14.1 3:0.5 4:1.9 5:0.9 6:0.0 7:0.0 8:1.0 9:279.0 
-0.19112908987039234 -0.09230338674907324 0.041232274254250315 0.17112653867327499 0.06939105691824787 0.020681087686260625 0.003998012052110533 0.0029812483495037403 1:1.4 2:15.0 3:0.7 4:2.5 5:0.9 6:0.0 7:0.0 8:2.0 9:374.0 
-0.19211576774397882 -0.09335404932301267 0.04201497621909728 0.1720086247101386 0.07005943014371419 0.020294740079604967 0.004220915467270127 0.0030086660385878483 1:0.2 2:18.4 3:0.0 4:1.0 5:0.0 6:0.0 7:0.0 8:1.0 9:406.0 
-0.1924284281179125 -0.09314344731537427 0.041614395216660695 0.17166944653961658 0.06973123156330935 0.020214806862854373 0.0039062462749129374 0.002968006761919273 1:0.7 2:17.0 3:2.2 4:3.2 5:0.0 6:0.8 7:0.0 8:-1.0 9:611.0 
-0.1935448528034721 -0.09262465016517318 0.041521946071438054 0.17153829561596123 0.06984621531721341 0.02057511080625162 0.003911241638103746 0.003040864570711177 1:0.0 2:8.4 3:0.0 4:1.0 5:0.0 6:0.0 7:0.0 8:1.0 9:169.0 
-0.19213145733714687 -0.09309683526553242 0.04168891588279389 0.17170955351125983 0.06971595771483408 0.02084688164818896 0.003906250141918255 0.0030368486009405005 1:2.1 2:9.8 3:1.3 4:2.7 5:0.9 6:0.0 7:0.9 8:1.0 9:590.0 
-0.19264025560133996 -0.09218928386399733 0.04174429755600004 0.17127015900627524 0.07881476775469276 0.020772112373032434 0.003982873385288299 0.002882727503165039 1:0.0 2:8.4 3:1.8 4:2.2 5:0.9 6:7.2 7:0.9 8:1.0 9:419.0 
-0.18013687930341254 -0.086916915774156 0.03873215686271264 0.16031207102930212 0.06523414140556791 0.01897221713759273 0.0039392877295338765 0.003279342440167532 1:1.0 2:10.2 3:0.0 4:0.9 5:0.0 6:0.5 7:0.7 8:-1.0 9:309.0 
-0.18092756730827247 -0.0871454807636573 0.039507253387343566 0.16186953175048155 0.0654345783559207 0.019410760849416953 0.003906322605360425 0.003036827815634968 1:0.7 2:16.2 3:0.0 4:0.0 5:0.0 6:0.0 7:0.7 8:1.0 9:318.0 
-0.19263028018185435 -0.09285093748148726 0.04153445798353178 0.17239159152033912 0.07012604472647976 0.020811252820218396 0.00394484302930825 0.0030369607682848576 1:0.0 2:26.4 3:0.0 4:0.0 5:1.8 6:0.3 7:0.0 8:2.0 9:400.0 
-0.20149570422831373 -0.08355976784100617 0.03636880061202252 0.1542472862124506 0.062475636754060926 0.01868460249822665 0.003906174019408295 0.0030349322469109263 1:1.4 2:7.7 3:0.5 4:1.8 5:0.0 6:0.0 7:0.0 8:1.0 9:294.0 
-0.09441251569760348 -0.031024414535976486 0.01431506611440514 0.055583629406112764 0.023878620800780348 0.006732487829110454 0.001083074112554701 9.523542444736929E-4 1:0.0 2:4.2 3:0.0 4:1.4 5:0.0 6:0.0 7:1.8 8:-1.0 9:260.0 
-0.42466314856908444 -0.08587276463141605 0.03899779046501939 0.159568153297525 0.06486919355784548 0.018805115278058317 0.003908385831856875 0.0029484734790963807 1:0.0 2:4.9 3:0.8 4:0.0 5:0.9 6:2.3 7:0.0 8:1.0 9:432.0 
-0.19232093809188155 -0.09302376193692313 0.0413205076858118 0.17233879820459397 0.06940252705278827 0.02027456865513172 0.0039216608335583825 0.003037201592928196 1:0.0 2:11.8 3:1.6 4:5.7 5:0.0 6:1.2 7:4.7 8:-1.0 9:300.0 
-0.1940523966570077 -0.09419157327751093 0.04162311542701547 0.17234919271017224 0.07004898705831086 0.020187767470185636 0.0039062389650761494 0.003037023527481253 1:0.0 2:5.0 3:0.6 4:0.0 5:0.9 6:5.4 7:0.0 8:-1.0 9:335.0 
-0.19264173936902468 -0.09288401674849706 0.04178270635330272 0.17220301540671143 0.06970210903653501 0.020831939241165186 0.004265696369351202 0.0030391253200564355 1:0.7 2:2.2 3:2.9 4:10.7 5:0.0 6:0.7 7:0.0 8:-1.0 9:682.0 
-1.0 -1.0 -1.0 1.0 1.0 0.4551044288792058 0.10059045157224122 0.10059045157224122 1:0.0 2:0.9 3:5.5 4:0.0 5:0.0 6:0.9 7:3.6 8:2.0 9:328.0 
-1.0 -1.0 -1.0 1.0 1.0 0.4539567176040499 0.09958111042241985 0.09958111042241985 1:3.3 2:0.0 3:5.8 4:1.9 5:0.9 6:0.0 7:0.9 8:-2.0 9:290.0 
-0.7780177122108944 -0.539329491833676 -0.958337853901065 0.7499999990835857 0.4367919438810103 0.0 0.0 0.0 1:2.7 2:5.4 3:17.4 4:2.4 5:0.0 6:0.3 7:4.5 8:2.0 9:636.0 
-1.0 -1.0 -1.0 0.981324331765719 0.954342166728338 0.4551091368274129 0.10059045157224122 0.10059045157224122 1:2.7 2:5.4 3:17.4 4:2.4 5:0.0 6:0.3 7:4.5 8:2.0 9:636.0 
-1.0 -1.0 -1.0 1.0 1.0 0.4541374777308243 0.09962036636845828 0.09962036636845828 1:0.0 2:6.5 3:0.0 4:0.0 5:0.0 6:0.6 7:68.9 8:2.0 9:663.0 
-1.0 -1.0 -1.0 1.0 1.0 0.45413923859765665 0.09961958281481531 0.09961958281481531 1:0.4 2:16.1 3:3.6 4:0.4 5:0.9 6:0.3 7:13.3 8:2.0 9:843.0 
-1.0 -1.0 -1.0 1.0 1.0 0.4541374777308242 0.0996195828148152 0.0996195828148152 1:0.0 2:1.5 3:0.3 4:8.1 5:0.0 6:0.0 7:2.7 8:2.0 9:264.0 
-1.0 -1.0 -1.0 1.0 1.0 0.45395534615100264 0.0995787564480306 0.0995787564480306 1:0.0 2:1.7 3:0.2 4:0.0 5:1.8 6:0.0 7:0.0 8:2.0 9:288.0 
-1.0 -1.0 -1.0 1.0 1.0 0.45510913493449673 0.10059045157224122 0.10059045157224122 1:1.0 2:3.1 3:0.0 4:0.0 5:1.8 6:0.5 7:2.5 8:2.0 9:353.0 
-1.0 -1.0 -1.0 1.0 1.0 0.4541374777308243 0.09961879484249586 0.09961879484249586 1:0.0 2:3.1 3:1.8 4:0.0 5:3.6 6:0.9 7:4.5 8:2.0 9:476.0 
-1.0 -1.0 -1.0 1.0 1.0 0.45510442887920577 0.10059045157224122 0.10059045157224122 1:0.7 2:4.2 3:6.3 4:0.0 5:0.0 6:0.8 7:2.7 8:-2.0 9:457.0 
-1.0 -0.5713693925695245 -1.0 -0.26878009337494313 0.4253857841864328 0.12217120790737052 0.02539155242028096 0.025391552408120854 1:0.4 2:1.4 3:2.7 4:32.3 5:0.0 6:1.5 7:0.0 8:2.0 9:326.0 
-0.15113952359072252 -0.0 -0.8292109588511212 -0.0 0.0 0.0 0.0 0.0 1:3.0 2:0.9 3:6.8 4:26.3 5:0.9 6:0.0 7:0.0 8:2.0 9:310.0 
-1.0 -0.5711770434883356 -0.9984192038190012 -0.26851419320226444 0.42524527031405207 0.12275137107787498 0.025393852109224235 0.025393856232553746 1:3.0 2:0.9 3:6.8 4:26.3 5:0.9 6:0.0 7:0.0 8:2.0 9:310.0 
-0.9504709458695455 -0.4712039234148042 -1.0 -0.22120766653871748 0.3508000668805824 0.10069657964603237 0.02038318180584804 0.02038318130408619 1:0.2 2:0.0 3:0.7 4:7.8 5:0.0 6:0.0 7:0.0 8:2.0 9:166.0 
-1.0 -0.5711666531483541 -1.0 -0.2685368824295893 0.4255106264499073 0.1227513710778751 0.025407279336537913 0.025407274790417267 1:1.1 2:10.3 3:7.5 4:45.8 5:0.0 6:0.0 7:4.5 8:2.0 9:522.0 
-1.0 -0.5717820858546445 -1.0 -0.2687450027703963 0.4255277789704572 0.121787573130899 0.025414243428666716 0.025414241947975258 1:3.7 2:3.9 3:3.0 4:11.7 5:0.9 6:4.3 7:1.8 8:2.0 9:866.0 
-1.0 -0.5692325110930827 -1.0 -0.2675316642747306 0.423619081404071 0.12129875221881864 0.02532737816955554 0.02532738129083387 1:0.0 2:0.0 3:0.0 4:10.3 5:0.0 6:0.0 7:0.0 8:2.0 9:196.0 
-0.9611764848627693 -0.592887650531424 -1.0 -0.21098577660621903 0.3338750938137766 0.0957090390397258 0.019292061313065954 0.019292051353010733 1:1.1 2:0.0 3:0.3 4:3.4 5:1.8 6:0.0 7:0.0 8:2.0 9:342.0 
-0.9584196191154937 -0.4763519675825055 -1.0 -0.20877883233309008 0.3298802125857245 0.0952684982160665 0.019273326154985337 0.01927332886452765 1:1.1 2:0.7 3:3.2 4:3.5 5:0.9 6:0.0 7:0.9 8:2.0 9:343.0 
-1.0 -0.5713270238410003 -1.0 -0.26861777874798315 0.4254685235441861 0.12215872590710936 0.02479363486486419 0.0247936362172127 1:0.0 2:4.0 3:9.4 4:20.6 5:0.0 6:2.4 7:3.6 8:-2.0 9:541.0 
-1.0 -0.5711353105761193 -1.0 -0.26880395801671214 0.4254071799572832 0.12178018712515014 0.02539008028756581 0.025390079881689627 1:1.8 2:4.7 3:7.4 4:11.2 5:0.0 6:3.6 7:3.6 8:2.0 9:468.0 
-1.0 -0.5717820858546445 -1.0 -0.2685570227822147 0.4255383689701146 0.12178757313089894 0.024880864952355475 0.024882324682073298 1:0.0 2:8.6 3:0.4 4:13.9 5:0.0 6:0.9 7:6.3 8:2.0 9:609.0 
-1.0 -0.5448206147005104 -1.0 -0.2562868226681169 0.4059389811397849 0.11611347454732089 0.023601769833237522 0.02360176924033857 1:0.7 2:1.8 3:1.1 4:3.7 5:0.0 6:0.0 7:1.8 8:2.0 9:196.0 
-1.0 -0.5712608170632648 -1.0 -0.2687626582369646 0.4253329127203748 0.12174679985313058 0.025388305857813452 0.02538830958695864 1:0.4 2:0.0 3:5.5 4:8.1 5:0.0 6:0.0 7:0.0 8:2.0 9:473.0 
-1.0 -0.571172312386784 -1.0 -0.2687794935662337 0.42550967014522567 0.12176150210572728 0.025396453456401902 0.025391554291333496 1:1.4 2:6.7 3:3.3 4:12.9 5:0.0 6:0.0 7:0.9 8:2.0 9:386.0 
-1.0 -0.5714425582660757 -1.0 -0.268517708546417 0.42560120752509195 0.12274773823915663 0.024779627463661913 0.02541972135765702 1:0.3 2:0.3 3:5.1 4:5.0 5:0.0 6:0.0 7:0.0 8:2.0 9:222.0 
-1.0 -0.5691086710270452 -1.0 -0.26709136755099155 0.42320166604287973 0.12138790063208643 0.02475854324771533 0.024639813201828988 1:1.0 2:0.4 3:2.1 4:5.9 5:0.9 6:0.0 7:0.9 8:2.0 9:443.0 
-1.0 -0.5467293802943742 -1.0 -0.25704148830285917 0.40715076040256387 0.11658144517881214 0.023726174248437322 0.023726175627326547 1:0.0 2:0.0 3:0.0 4:2.0 5:0.9 6:0.0 7:0.0 8:2.0 9:200.0 
-1.0 -0.5713629209847952 -1.0 -0.2686272258201059 0.42536688626533653 0.12213724543327775 0.02477962746121687 0.02479180905043582 1:0.0 2:9.3 3:0.0 4:6.4 5:0.0 6:0.0 7:11.8 8:2.0 9:571.0 
-1.0 -0.5689887292311684 -1.0 -0.26736561488311317 0.42306833941255884 0.12109829661417937 0.024741600607267634 0.024741591512988357 1:3.0 2:2.6 3:5.5 4:7.4 5:0.0 6:0.0 7:1.8 8:2.0 9:339.0 
-1.0 -0.5713670079640281 -1.0 -0.26815124124258777 0.4253470461113694 0.12178754655205137 0.02539150954108088 0.025393850311870858 1:0.0 2:0.3 3:0.0 4:6.9 5:2.7 6:1.0 7:0.0 8:2.0 9:739.0 
-0.9513446639150728 -0.47101654487405376 -1.0 -0.22159533469973183 0.3509278799669249 0.10110608272751231 0.020388889770758353 0.020388889267699422 1:0.2 2:1.1 3:3.4 4:5.9 5:0.0 6:0.0 7:0.9 8:2.0 9:165.0 
-1.0 -0.5717972656488781 -1.0 -0.26865978808735497 0.4255282290204321 0.12204247463233481 0.025391605374017967 0.025391515055884217 1:2.3 2:8.5 3:14.4 4:35.8 5:0.0 6:1.6 7:4.5 8:2.0 9:1135.0 
-1.0 -0.5718772665550935 -1.0 -0.2686177787479831 0.4257701325754364 0.12243889115878387 0.02539385210922418 0.025407274790417156 1:4.3 2:6.0 3:12.5 4:25.6 5:0.0 6:0.0 7:5.4 8:2.0 9:601.0 
-1.0 -0.5717972656488499 -1.0 -0.26867566915068175 0.42538578418641193 0.12178787515411574 0.024547731366295726 0.02457292949749367 1:0.0 2:1.8 3:0.7 4:22.0 5:0.0 6:0.0 7:1.6 8:2.0 9:573.0 
-1.0 -0.5713280682035332 -1.0 -0.26879715574329965 0.42583497042497204 0.12274998856235902 0.02457293132026489 0.025101264833981007 1:1.1 2:3.6 3:3.4 4:14.7 5:0.0 6:0.0 7:4.5 8:2.0 9:427.0 
-1.0 -0.5253772673602519 -1.0 -0.24697512892252216 0.3913555068472114 0.11238461080345447 0.022443534754721377 0.022443534196146538 1:0.4 2:0.4 3:1.2 4:6.4 5:0.0 6:1.0 7:0.9 8:2.0 9:176.0 
-1.0 -0.5712184710593757 -1.0 -0.2686597880990664 0.42538827964651293 0.12176059914992947 0.02540727933653783 0.025411987347930765 1:0.2 2:1.3 3:6.3 4:15.0 5:0.9 6:0.0 7:1.6 8:2.0 9:501.0 
-1.0 -0.5713280681486124 -1.0 -0.26865978806140905 0.42551062640896 0.1221587258953519 0.025411984458466937 0.0254142419456665 1:0.5 2:12.1 3:5.2 4:13.2 5:0.0 6:4.5 7:5.4 8:1.0 9:579.0 
-1.0 -0.5717820858546896 -1.0 -0.26879716663035147 0.4255282331252228 0.12262727993184097 0.024771271612197387 0.02477962684704671 1:0.0 2:0.0 3:2.0 4:3.6 5:0.9 6:0.0 7:0.0 8:-1.0 9:252.0 
-1.0 -0.5713349459993042 -1.0 -0.2698318367989031 0.4255383689866505 0.12222884361099079 0.02479180916853535 0.02477495779953015 1:0.0 2:0.7 3:0.9 4:5.4 5:0.0 6:0.0 7:0.0 8:1.0 9:283.0 
-1.0 -0.5713627972109012 -1.0 -0.26878003435982917 0.42550959422425144 0.1227513440121411 0.025419687855308404 0.025396498805352274 1:1.2 2:3.9 3:0.2 4:13.8 5:1.8 6:2.5 7:0.0 8:-1.0 9:747.0 
-1.0 -0.5713643695155706 -1.0 -0.2690325065648701 0.43251244346701134 0.12178784507482619 0.025414243398860226 0.024886317534754843 1:0.0 2:0.0 3:0.7 4:3.1 5:1.8 6:0.0 7:0.0 8:1.0 9:397.0 
-1.0 -0.5711269722330287 -1.0 -0.2686832901242426 0.4254962427855542 0.12274101777677755 0.025389807661179244 0.025389807648999348 1:0.0 2:2.5 3:0.6 4:10.3 5:0.0 6:3.0 7:2.7 8:-1.0 9:478.0 
-1.0 -0.5254407593306096 -1.0 -0.24695682760624593 0.39127048349411125 0.11202126221422608 0.0227550474157669 0.02275504684969886 1:0.0 2:0.0 3:0.3 4:5.4 5:0.0 6:0.0 7:0.0 8:-1.0 9:179.0 
-1.0 -0.5712171862127863 -1.0 -0.2686266269969345 0.42584602643600056 0.12195806316094637 0.02454767900387006 0.024547677153093805 1:4.5 2:2.6 3:3.7 4:4.7 5:0.0 6:0.0 7:3.6 8:-2.0 9:386.0 
-1.0 -0.5713144258150352 -1.0 -0.2685128784441985 0.4254307948479312 0.12178700181990805 0.025411860018487806 0.025411862905662545 1:1.7 2:1.4 3:3.2 4:11.3 5:1.8 6:0.0 7:0.9 8:-1.0 9:461.0 
-1.0 -0.5711666531480795 -1.0 -0.26855476920246535 0.42583497042482693 0.12274771874824159 0.024431453354756855 0.0245477295162147 1:1.0 2:7.1 3:6.0 4:22.0 5:0.0 6:1.5 7:1.8 8:-1.0 9:486.0 
-1.0 -0.5707762431255679 -1.0 -0.26854003438484975 0.4247911332825029 0.12205283375248793 0.025380086522695418 0.02538008255863802 1:0.8 2:4.4 3:3.3 4:12.8 5:0.0 6:0.0 7:1.8 8:-2.0 9:199.0 
-1.0 -0.571782085885018 -1.0 -0.2687971656279273 0.42523879227175576 0.12178759337492602 0.024771271612172074 0.024431452746717264 1:0.0 2:1.6 3:0.0 4:13.9 5:0.0 6:0.9 7:0.0 8:-1.0 9:408.0 
-1.0 -0.5687490104569799 -1.0 -0.2671081782806652 0.4227559181601094 0.12146790225612714 0.0247456418674014 0.02474417269878578 1:2.1 2:0.3 3:4.3 4:12.0 5:0.0 6:0.0 7:0.0 8:1.0 9:442.0 
-1.0 -0.5711735878412955 -1.0 -0.2687800924215229 0.4257701325754365 0.12195833518646798 0.02510126545869862 0.02477962684704693 1:0.8 2:1.9 3:2.8 4:35.1 5:0.0 6:1.6 7:0.0 8:-1.0 9:793.0 
-1.0 -1.0 -1.0 -0.608866181595708 -1.0 0.27836481992592305 0.058608513465649936 0.058608513465649936 1:0.0 2:3.7 3:0.0 4:0.0 5:0.0 6:8.4 7:0.0 8:2.0 9:317.0 
-1.0 -1.0 -1.0 -0.6076195707017593 -1.0 0.2767339170949279 0.05848060568788324 0.05848060568788324 1:0.2 2:0.3 3:0.3 4:2.5 5:1.8 6:10.6 7:0.0 8:2.0 9:295.0 
-1.0 -1.0 -1.0 -0.6088658996172013 -1.0 0.27744701134947247 0.05957774024275303 0.05957774024275303 1:0.0 2:0.4 3:0.0 4:0.6 5:0.0 6:14.5 7:0.0 8:2.0 9:211.0 
-1.0 -1.0 -1.0 -0.6088689124382427 -1.0 0.2774518421078988 0.0586085273808946 0.0586085273808946 1:0.0 2:2.8 3:0.6 4:1.2 5:0.0 6:32.2 7:0.0 8:2.0 9:667.0 
-1.0 -1.0 -1.0 -0.6088661827140782 -1.0 0.27744701134947236 0.05862320696046741 0.05862320696046741 1:1.6 2:1.7 3:0.0 4:0.6 5:0.9 6:37.7 7:0.0 8:2.0 9:756.0 
-1.0 -1.0 -1.0 -0.6091323068255216 -1.0 0.27742208375648086 0.058608485204435956 0.058608485204435956 1:0.0 2:4.3 3:0.0 4:0.0 5:0.0 6:10.3 7:0.0 8:2.0 9:406.0 
-1.0 -1.0 -1.0 -0.608879917814814 -1.0 0.2774470104678035 0.05861832334977218 0.05861832334977218 1:0.0 2:2.2 3:0.2 4:0.3 5:0.0 6:6.2 7:0.0 8:2.0 9:482.0 
-1.0 -1.0 -1.0 -0.6088634980564868 -1.0 0.2783636806231132 0.05860343504997348 0.05860343504997348 1:0.7 2:1.5 3:6.2 4:0.6 5:0.0 6:5.7 7:1.8 8:-2.0 9:300.0 
-1.0 -1.0 -1.0 -0.6073391621884505 -1.0 0.27675995193654707 0.05847597548212696 0.05847597548212696 1:0.0 2:3.1 3:2.1 4:0.6 5:1.8 6:13.9 7:1.8 8:2.0 9:290.0 
-1.0 -1.0 -1.0 -0.6088684517448628 -1.0 0.2783646114886703 0.05957769006227459 0.05957769006227459 1:0.4 2:6.0 3:1.0 4:0.0 5:0.0 6:3.8 7:0.0 8:2.0 9:415.0 
-1.0 -1.0 -1.0 -0.6088658893906518 -1.0 0.27836962547177047 0.058608518906196116 0.058608518906196116 1:0.0 2:0.3 3:0.3 4:1.9 5:1.8 6:1.8 7:0.0 8:2.0 9:546.0 
-1.0 -1.0 -1.0 -0.608211436760393 -1.0 0.2774518421079134 0.05957774024275303 0.05957774024275303 1:0.0 2:3.9 3:0.6 4:2.4 5:1.4 6:4.8 7:0.9 8:2.0 9:774.0 
-1.0 -1.0 -1.0 -0.6082105952751943 -1.0 0.27836442780866893 0.05861824237262392 0.05861824237262392 1:0.0 2:4.7 3:1.2 4:0.0 5:0.0 6:7.5 7:0.0 8:2.0 9:272.0 
-1.0 -1.0 -1.0 -0.6091327454955568 -1.0 0.27745666058450524 0.058608518906192855 0.058608518906192855 1:0.0 2:1.6 3:1.9 4:0.0 5:2.7 6:17.3 7:2.1 8:1.0 9:661.0 
-1.0 -1.0 -1.0 -0.6091390383316304 -1.0 0.27744662719058294 0.058608437939019875 0.058608437939019875 1:0.0 2:2.7 3:2.5 4:0.0 5:0.0 6:6.8 7:2.5 8:-1.0 9:262.0 
-1.0 -1.0 -1.0 -0.6525354315271367 -1.0 0.27836962499004836 0.05957773214134893 0.05957773214134893 1:1.4 2:0.8 3:5.0 4:0.0 5:0.0 6:0.9 7:0.0 8:-1.0 9:326.0 
-1.0 -1.0 -1.0 -0.6088688901316605 -1.0 0.2783696262744308 0.058618306605633885 0.058618306605633885 1:0.5 2:1.6 3:3.4 4:1.2 5:0.9 6:0.6 7:0.9 8:-1.0 9:392.0 
-0.8978981117762934 -0.8109990909285849 -0.9800099351281817 -0.6249497414792131 -0.8784940285421852 -0.75 0.0 0.0 1:5.8 2:3.5 3:4.1 4:2.0 5:0.0 6:0.0 7:4.5 8:2.0 9:236.0 
-1.0 -0.97898819584779 -0.9991582475696336 -0.91994112358629 -0.999375088095128 -0.9716303745282295 0.25 0.2500444557863375 1:5.8 2:3.5 3:4.1 4:2.0 5:0.0 6:0.0 7:4.5 8:2.0 9:236.0 
-1.0 -1.0 -1.0 -1.0 -1.0 -1.0 0.25 0.24998518140455417 1:11.3 2:0.0 3:2.1 4:1.3 5:0.0 6:0.0 7:0.0 8:2.0 9:218.0 
-1.0 -1.0 -1.0 -1.0 -1.0 -1.0 0.25 0.24998518140455417 1:16.6 2:0.0 3:7.7 4:0.5 5:0.0 6:0.0 7:0.0 8:2.0 9:275.0 
-1.0 -1.0 -1.0 -1.0 -1.0 -1.0 0.25 0.24998518140455417 1:7.0 2:0.8 3:7.0 4:0.0 5:0.9 6:0.0 7:0.0 8:2.0 9:403.0 
-1.0 -1.0 -1.0 -1.0 -1.0 -1.0 -1.0 1.0 1:6.5 2:0.0 3:0.6 4:0.0 5:42.5 6:0.0 7:0.0 8:2.0 9:492.0 
-1.0 -1.0 -1.0 -1.0 -1.0 -1.0 -1.0 -1.0 1:0.0 2:2.1 3:1.7 4:0.0 5:0.0 6:0.0 7:1.3 8:-2.0 9:232.0 
