svm_type c_svc
kernel_type rbf
gamma 0.3333333333333333
nr_class 3
total_sv 40
rho 0.05801748905884718 0.6084234252647075 0.4308587927374813
label 3 2 1
nr_sv 6 12 22
SV
1.0 1.0 1:0.7 2:3.2 3:7.0 
0.8831827656636817 1.0 1:0.7 2:0.8 3:1.7 
0.8656302210260423 1.0 1:0.7 2:0.0 3:1.0 
0.8952263732692802 1.0 1:0.0 2:0.0 3:8.6 
1.0 1.0 1:5.7 2:4.2 3:9.0 
0.8802277070067942 1.0 1:0.0 2:0.0 3:6.3 
-0.04353092894622312 0.22737592907437623 1:1.7 2:8.3 3:0.0 
-0.7865006255610798 1.0 1:1.0 2:9.1 3:0.0 
-0.26066475167940334 0.29385820608838875 1:0.0 2:4.0 3:0.0 
-0.6395507742102277 0.9559783411540608 1:0.0 2:6.8 3:0.0 
-0.4055560490042243 0.6917879127526965 1:3.2 2:5.8 3:0.0 
-0.2723286114734682 0.3061975676354365 1:2.4 2:4.7 3:0.0 
-0.4191258422920649 0.7170902190927143 1:0.0 2:4.9 3:0.0 
-0.6258542634537401 1.0 1:0.0 2:2.1 3:0.0 
-0.5560391133121599 0.7697138596076822 1:2.9 2:7.1 3:0.0 
-0.4977406765281611 0.9161976842839397 1:2.6 2:3.2 3:0.0 
-1.0 1.0 1:1.4 2:1.4 3:0.0 
-0.017375430505045805 1.0 1:1.2 2:1.5 3:0.0 
-0.3408458938437701 -0.4696337478062592 1:5.5 2:0.0 3:0.0 
-0.5406546653148228 -1.0 1:0.7 2:0.7 3:0.0 
-0.4400118126829276 -0.0 1:0.7 2:0.0 3:0.0 
-0.18744721983353746 -0.0 1:2.3 2:0.0 3:0.0 
-0.07938406433224754 -1.0 1:1.4 2:0.7 3:0.0 
-0.29974676115411486 -0.43528390112044324 1:29.2 2:0.0 3:0.0 
-0.32611352837188967 -0.4738115648852425 1:14.0 2:2.3 3:0.0 
-0.2679281165094386 -0.38927633329746075 1:17.1 2:0.0 3:0.0 
-0.30393805857583966 -0.4423672693296155 1:7.7 2:3.4 3:0.0 
-0.42614281317995095 -0.1849292949395425 1:0.0 2:0.0 3:0.0 
-0.2815562894074929 -0.4092475494738903 1:9.6 2:3.7 3:0.0 
-0.18274164503084306 -0.75375883431988 1:3.2 2:0.9 3:0.0 
-0.35326146355888993 -0.5134389965795535 1:18.7 2:2.6 3:0.0 
-0.182464919037096 -0.26510181325590754 1:14.7 2:0.0 3:0.0 
-0.0 -0.0013430219157812284 1:31.1 2:0.0 3:0.0 
-0.3015983588053744 -0.4369741684538432 1:31.1 2:0.0 3:0.0 
-0.35540622124802806 -0.5169488879690785 1:10.4 2:0.9 3:0.0 
-0.3740077062693998 -0.5439575366343371 1:20.6 2:0.0 3:0.0 
-0.23851252765746453 -0.34640623353261235 1:13.2 2:0.0 3:0.0 
-0.04024703376998084 -0.0 1:4.0 2:0.0 3:0.0 
-0.08837807069180066 -0.12871037226449084 1:17.2 2:0.8 3:0.0 
-0.38961283072509056 -0.567010193911357 1:25.2 2:0.7 3:0.0 
